{"learner":{"attributes":{},"feature_names":[],"feature_types":[],"gradient_booster":{"model":{"gbtree_model_param":{"num_parallel_tree":"1","num_trees":"94"},"iteration_indptr":[0,1,2,3,4,5,6,7,8,9,10,11,12,13,14,15,16,17,18,19,20,21,22,23,24,25,26,27,28,29,30,31,32,33,34,35,36,37,38,39,40,41,42,43,44,45,46,47,48,49,50,51,52,53,54,55,56,57,58,59,60,61,62,63,64,65,66,67,68,69,70,71,72,73,74,75,76,77,78,79,80,81,82,83,84,85,86,87,88,89,90,91,92,93,94],"tree_info":[0,0,0,0,0,0,0,0,0,0,0,0,0,0,0,0,0,0,0,0,0,0,0,0,0,0,0,0,0,0,0,0,0,0,0,0,0,0,0,0,0,0,0,0,0,0,0,0,0,0,0,0,0,0,0,0,0,0,0,0,0,0,0,0,0,0,0,0,0,0,0,0,0,0,0,0,0,0,0,0,0,0,0,0,0,0,0,0,0,0,0,0,0,0],"trees":[{"base_weights":[-2.7913147E-1,-8.0490446E-1,4.2117792E-1,-1.0391839E0,-3.795407E-1,-3.7725627E-1,9.0770966E-1,-1.0977591E0,-8.706919E-1,-6.2015384E-1,4.722701E-2,-5.417607E-1,1.6779472E-1,5.060875E-1,1.5250292E0,-1.1414756E0,-9.632663E-1,-8.909176E-1,-3.7044223E-2,-8.272276E-1,-3.860893E-1,-1.9378763E-1,5.664729E-1,-7.551391E-1,-3.5335046E-1,-2.529544E-1,5.648506E-1,1.9673704E-1,9.684327E-1,8.0986434E-1,1.9324E0,-1.1953281E0,-1.0964797E0,-9.860207E-1,-3.389398E-1,-9.6705765E-1,-7.0796657E-1,-1.900171E-1,7.653881E-1,-8.9472616E-1,-6.339964E-1,-4.5954964E-1,8.1676716E-1,-4.8887065E-1,7.561947E-2,-2.785707E-1,8.4912294E-1,-9.1482854E-1,-6.800953E-1,-6.6821355E-1,-2.4203183E-1,-2.9773283E-1,7.3247683E-1,4.6164018E-1,1.3960687E0,-1.7516431E-1,4.362045E-1,2.0408653E-1,1.174006E0,4.8400494E-1,1.2910062E0,1.4218682E0,2.4486198E0,-7.6296777E-1,-1.1965767E0,-1.0651643E0,-1.1680567E0,-1.1204072E0,-9.133797E-1,-6.204749E-1,2.800891E-1,-1.0966276E0,-9.127124E-1,-7.590881E-1,-4.9857178E-1,-3.8307092E-1,-2.2329275E-2,-5.8321726E-2,1.1396095E0,-9.132195E-1,-4.790844E-1,-8.272613E-1,-5.131112E-1,-6.018769E-1,-5.1971525E-2,3.3304486E-1,1.2206786E0,-5.3728026E-1,-3.6566135E-2,2.8488764E-3,9.0823734E-1,-5.328836E-2,-2.4548858E-1,6.38632E-1,1.4834465E0,-2.819881E-1,-9.354809E-1,-7.033794E-1,-1.7134663E-1,-6.869463E-1,-4.0737785E-2,-5.833037E-1,-1.5547217E-1,-6.575383E-2,-3.743701E-1,1.19993314E-1,1.122456E0,2.8920716E-1,8.5485786E-1,1.0350424E0,2.0317116E0,-2.5899532E-1,5.764801E-1,8.928039E-2,6.931837E-1,-2.52965E-1,4.7864074E-1,6.307806E-1,1.416148E0,3.8954982E-1,1.611042E0,-5.890839E-1,1.3277597E0,1.463896E0,4.186106E-1,2.2554393E0,2.867281E0,-2.440854E-1,-5.3053923E-2,-1.2160654E0,-1.163238E0,-1.1123717E0,-1.0150307E0,-5.8569837E-2,-6.6505647E-1,-5.639823E-2,-7.543555E-1,7.174398E-2,-9.1638064E-1,-7.472118E-1,-4.0131274E-1,7.6340353E-1,-1.19482204E-1,-5.18398E-1,-1.1020397E0,-8.6815196E-1,-1.0214498E0,-9.573408E-1,-6.950259E-1,-5.2290183E-1,6.469808E-2,-5.774106E-1,1.3342881E-1,5.432396E-1,-1.6949964E-1,3.1871792E-2,-3.8738225E-2,1.4359607E0,5.2798665E-1,-8.584794E-1,-1.0147713E0,-6.62826E-1,-5.3811006E-2,-1.0304035E0,-7.5496393E-1,-5.677447E-1,-1.1015191E-1,-1.0806276E0,-5.6794184E-1,1.576446E-1,-2.346294E-1,7.940024E-2,1.1025208E0,1.4381142E0,1.19993314E-1,-7.8759325E-1,-4.616334E-1,-6.8192047E-1,2.08882E-2,-7.6721005E-2,4.5058298E-1,6.689882E-1,1.5196371E0,-4.8689684E-1,-1.5945515E-1,-4.143726E-1,6.6768765E-1,-4.5471892E-1,1.535047E0,-7.3252785E-1,4.47853E-1,-1.0819958E0,-8.6062187E-1,-8.690242E-1,-6.475189E-1,-2.3795809E-1,6.469808E-2,-6.5374815E-1,-9.9197996E-1,9.1977763E-1,-4.102583E-1,-6.6111225E-1,2.1630666E-1,-1.1728753E-1,-7.0423573E-1,-1.6286242E-1,3.63173E-1,-4.9373093E-1,-1.7885025E-1,-1.0441702E-1,4.432648E-2,2.151319E-2,8.253517E-2,5.9810644E-1,1.7257166E-1,9.00604E-1,-5.060621E-1,3.3760458E-1,1.2204115E0,2.11525E0,1.3636758E-2,-5.7310444E-1,-8.542086E-2,4.1149013E-2,8.067092E-1,1.3692357E-1,-6.1345786E-1,7.549735E-1,-3.4849247E-1,-6.120585E-1,-8.47312E-2,1.3466733E0,4.06997E-1,4.765871E-1,1.1375083E0,1.1309003E0,1.6854247E0,-7.7750605E-1,4.139967E-1,1.3595957E0,1.1468177E-1,-1.1732746E-2,-7.879271E-1,1.2209944E0,1.7603337E0,-3.871961E-1,1.4855461E0,7.988851E-1,2.009148E-1,1.879389E0,2.4464004E0,1.9104577E0,2.9906166E0,-3.263146E-2,2.3954885E-2,-6.0881432E-2,-4.119798E-2,-5.828041E-2,-3.2921925E-2,-5.722726E-2,-5.2431207E-2,-7.041529E-4,-5.100083E-2,-5.118873E-4,-4.04282E-2,-2.9160862E-3,-4.6497267E-2,2.2013431E-2,-1.9625057E-2,-5.2025642E-2,-4.4219714E-2,-3.0794455E-2,-4.9838785E-2,-2.5827093E-2,1.781674E-2,5.8885436E-3,4.551327E-2,-2.4262363E-2,2.1904563E-3,-3.4886725E-2,8.255731E-3,-5.5512853E-2,-3.932001E-2,-4.381418E-2,4.769227E-3,-5.3242784E-2,-4.3272827E-2,-4.8728224E-2,3.7097737E-2,-3.9176434E-2,-2.9803291E-2,-2.0737907E-2,-3.8417947E-2,-2.9160862E-3,-3.4130614E-2,-3.7159905E-2,2.1831935E-2,4.5040265E-2,-3.3285204E-2,-1.3399881E-2,4.432648E-2,9.54854E-2,3.31429E-2,3.7714448E-2,3.5832878E-3,-5.8365375E-2,-4.18157E-2,-5.621294E-2,-4.791846E-2,-3.8313285E-2,-2.0313568E-3,-2.5630826E-2,1.1727868E-2,-5.5393245E-2,-3.913036E-2,-2.8135926E-2,-4.3442484E-2,-2.0652715E-2,-3.4915797E-2,2.3021396E-2,-2.643962E-2,-5.550338E-2,-2.050553E-2,-2.3872823E-2,-3.684585E-2,-6.189636E-3,1.935959E-2,-1.8405383E-2,9.0056425E-3,1.24460785E-2,-2.3462355E-2,8.141449E-2,2.1831935E-2,5.7093143E-2,9.389881E-2,-1.9702153E-2,7.770595E-2,-4.1221555E-2,-8.18481E-3,-1.7324146E-2,-3.3947352E-2,-3.796677E-2,-9.824223E-3,-2.3606375E-3,2.8042534E-2,-4.3053817E-2,-2.5976163E-3,1.203826E-2,5.486971E-2,-4.82243E-3,4.5921873E-2,2.3094283E-2,1.0461924E-1,-1.145245E-2,-3.2079503E-2,-6.248537E-3,-4.2888947E-2,-3.428301E-2,3.1871792E-2,4.184931E-2,2.5342254E-2,-4.013289E-2,8.255731E-3,7.9084724E-2,-1.9288149E-2,-2.1225872E-2,-4.577633E-2,-1.678831E-2,3.4042016E-2,-5.454888E-2,-1.7331166E-2,-4.4508394E-2,-1.7980928E-2,-4.4391077E-2,9.86858E-3,-3.1079236E-2,-5.0583746E-2,-1.6271079E-2,2.4962878E-2,-3.9662156E-2,-3.0001253E-2,-5.2342694E-2,5.8885436E-3,5.8885436E-3,7.594079E-2,1.4016183E-2,-3.0559257E-2,-3.494392E-2,1.1243499E-2,2.7470617E-3,9.54854E-2,-8.339501E-3,1.1331272E-2,-1.364206E-2,-4.017415E-2,-1.3987441E-3,-1.987242E-2,7.553461E-2,6.2859203E-3,-4.096449E-2,-2.0680657E-2,-4.6314555E-3,-2.6415143E-2,1.8661503E-2,-3.6077123E-2,4.368305E-2,-3.263146E-2,1.8073935E-2,4.3650817E-2,1.0181662E-2,-1.922319E-2,3.340602E-2,5.980555E-2,-3.796677E-2,1.3636758E-2,7.03881E-2,-5.6584245E-3,4.2246226E-2,7.1810715E-2,1.4190368E-1,8.4387615E-2,-2.620151E-2,-5.1824268E-2,-2.3044609E-3,-3.835387E-2,-1.187396E-2,1.7457137E-2,2.1565158E-2,5.2195966E-2,-2.6831292E-3,1.2097743E-2,-4.7543306E-2,-2.022185E-2,4.1622605E-2,2.7055323E-2,-2.242214E-2,5.5666674E-2,-1.6723717E-2,-4.4997644E-2,4.309922E-3,-1.3181621E-2,7.2787054E-2,-9.824223E-3,3.440633E-2,1.2861139E-2,6.244011E-3,2.894177E-2,5.8674235E-2,-1.5189457E-2,5.9440043E-2,-1.999402E-3,8.619686E-2,2.426203E-2,-4.7724105E-2,2.490582E-3,1.3053022E-2,2.7296344E-2,-4.1305507E-3,7.1417294E-2,-3.5359103E-2,3.7097737E-2,-4.1305507E-3,-5.065403E-2,5.131632E-2,7.171168E-2,6.2538266E-2,1.14978306E-1,-3.3777084E-2,2.0741789E-2,6.711933E-2,8.8230275E-2,-9.824223E-3,4.480448E-2,-2.050553E-2,1.6138388E-2,-3.3864812E-3,9.50826E-2,1.2460321E-1,5.3500433E-2,7.170516E-2,1.1725625E-1,1.6616876E-1,1.387823E-1],"categories":[],"categories_nodes":[],"categories_segments":[],"categories_sizes":[],"default_left":[0,0,0,0,0,0,0,0,0,0,0,0,0,0,0,0,0,0,0,0,0,0,0,0,0,0,0,0,0,0,0,0,0,0,0,0,0,0,0,0,0,0,0,0,0,0,0,0,0,0,0,0,0,0,0,0,0,0,0,0,0,0,0,0,0,0,0,0,0,0,0,0,0,0,0,0,0,0,0,0,0,0,0,0,0,0,0,0,0,0,0,0,0,0,0,0,0,0,0,0,0,0,0,0,0,0,0,0,0,0,0,0,0,0,0,0,0,0,0,0,0,0,0,0,0,0,0,0,0,0,0,0,0,0,0,0,0,0,0,0,0,0,0,0,0,0,0,0,0,0,0,0,0,0,0,0,0,0,0,0,0,0,0,0,0,0,0,0,0,0,0,0,0,0,0,0,0,0,0,0,0,0,0,0,0,0,0,0,0,0,0,0,0,0,0,0,0,0,0,0,0,0,0,0,0,0,0,0,0,0,0,0,0,0,0,0,0,0,0,0,0,0,0,0,0,0,0,0,0,0,0,0,0,0,0,0,0,0,0,0,0,0,0,0,0,0,0,0,0,0,0,0,0,0,0,0,0,0,0,0,0,0,0,0,0,0,0,0,0,0,0,0,0,0,0,0,0,0,0,0,0,0,0,0,0,0,0,0,0,0,0,0,0,0,0,0,0,0,0,0,0,0,0,0,0,0,0,0,0,0,0,0,0,0,0,0,0,0,0,0,0,0,0,0,0,0,0,0,0,0,0,0,0,0,0,0,0,0,0,0,0,0,0,0,0,0,0,0,0,0,0,0,0,0,0,0,0,0,0,0,0,0,0,0,0,0,0,0,0,0,0,0,0,0,0,0,0,0,0,0,0,0,0,0,0,0,0,0,0,0,0,0,0,0,0,0,0,0,0,0,0,0,0,0,0,0,0,0,0,0,0,0,0,0,0,0,0,0,0,0,0,0,0,0,0,0,0,0,0,0,0,0,0,0,0,0,0,0,0,0,0,0,0,0,0,0,0,0,0,0,0,0,0,0,0,0,0,0,0,0,0,0,0,0,0,0,0,0,0,0,0,0,0,0,0,0,0,0,0,0,0,0,0],"id":0,"left_children":[1,3,5,7,9,11,13,15,17,19,21,23,25,27,29,31,33,35,37,39,41,43,45,47,49,51,53,55,57,59,61,63,65,67,69,71,73,75,77,79,81,83,85,87,89,91,93,95,97,99,101,103,105,107,109,111,113,115,117,119,121,123,125,127,129,131,133,135,137,139,141,143,145,147,149,151,153,155,157,159,161,163,165,167,169,171,173,175,177,179,181,-1,183,185,187,189,191,193,195,197,199,201,203,205,207,209,211,213,215,217,219,221,223,225,227,229,231,233,235,237,239,241,243,245,247,249,251,253,-1,255,257,259,261,-1,263,-1,265,267,269,271,273,275,277,279,281,283,285,287,289,291,-1,293,295,297,299,-1,-1,301,303,305,307,309,311,313,315,317,319,321,323,325,327,329,331,333,335,337,339,341,343,345,347,349,351,353,355,357,359,361,363,365,367,369,371,373,375,377,-1,379,381,383,385,387,389,391,393,395,397,399,401,403,-1,405,-1,407,409,411,413,415,417,419,-1,421,423,425,427,429,431,433,435,437,439,441,443,445,447,449,451,453,455,457,-1,459,461,463,465,467,469,471,473,475,477,479,481,-1,-1,-1,-1,-1,-1,-1,-1,-1,-1,-1,-1,-1,-1,-1,-1,-1,-1,-1,-1,-1,-1,-1,-1,-1,-1,-1,-1,-1,-1,-1,-1,-1,-1,-1,-1,-1,-1,-1,-1,-1,-1,-1,-1,-1,-1,-1,-1,-1,-1,-1,-1,-1,-1,-1,-1,-1,-1,-1,-1,-1,-1,-1,-1,-1,-1,-1,-1,-1,-1,-1,-1,-1,-1,-1,-1,-1,-1,-1,-1,-1,-1,-1,-1,-1,-1,-1,-1,-1,-1,-1,-1,-1,-1,-1,-1,-1,-1,-1,-1,-1,-1,-1,-1,-1,-1,-1,-1,-1,-1,-1,-1,-1,-1,-1,-1,-1,-1,-1,-1,-1,-1,-1,-1,-1,-1,-1,-1,-1,-1,-1,-1,-1,-1,-1,-1,-1,-1,-1,-1,-1,-1,-1,-1,-1,-1,-1,-1,-1,-1,-1,-1,-1,-1,-1,-1,-1,-1,-1,-1,-1,-1,-1,-1,-1,-1,-1,-1,-1,-1,-1,-1,-1,-1,-1,-1,-1,-1,-1,-1,-1,-1,-1,-1,-1,-1,-1,-1,-1,-1,-1,-1,-1,-1,-1,-1,-1,-1,-1,-1,-1,-1,-1,-1,-1,-1,-1,-1,-1,-1,-1,-1,-1,-1,-1,-1,-1,-1,-1,-1,-1,-1,-1,-1,-1,-1,-1,-1,-1,-1],"loss_changes":[1.0867551E4,1.679583E3,4.917129E3,1.0632715E2,6.150066E2,4.2985413E2,1.9491733E3,4.6302734E1,4.7329346E1,1.8530493E2,2.7044162E2,1.477627E2,1.8591432E2,6.815342E2,9.0143945E2,1.342041E1,2.7853027E1,3.7516357E1,8.440796E0,2.5925049E1,1.5939252E2,1.17381775E2,1.6386226E2,2.0058777E1,6.844281E1,2.407182E1,4.8463364E1,2.5451163E2,2.999496E2,1.7599957E2,5.1675244E2,5.7470703E-1,6.206299E0,1.765979E1,1.2599118E1,1.2615601E1,8.288452E0,1.8548203E0,3.4631248E0,1.1114868E1,1.1940765E1,9.839148E1,1.9901161E1,1.540831E1,4.680188E1,4.2295237E0,6.762738E1,6.909149E0,1.3833008E1,5.9748077E0,4.2673157E1,9.180889E0,5.546633E0,3.4379143E1,1.2292862E1,7.070631E1,1.549024E2,5.1084534E1,1.971145E2,7.104338E1,3.2173462E1,4.133423E1,7.280371E1,1.3955083E0,3.701172E-1,4.370117E0,9.030762E-1,9.946289E-1,3.7545166E0,1.0699978E0,4.528608E0,1.201355E0,5.743164E0,7.575348E0,7.73275E0,2.7565262E0,2.7444072E0,2.6839395E0,6.2400913E-1,7.12146E0,5.131343E0,2.189209E0,7.1636887E0,1.9815125E1,1.6892458E1,9.411927E0,1.3293739E1,1.1687088E1,2.5798876E0,2.5378744E1,8.064938E0,0E0,3.386691E0,1.2128998E1,1.3420319E1,6.5020256E0,4.8933716E0,9.856689E0,5.468697E0,4.372406E0,6.0090857E0,1.8342957E1,2.4143034E1,5.4654303E0,8.989967E0,1.8768812E0,8.346529E0,1.2741686E1,1.0115906E1,5.02388E0,2.6095123E0,5.4913414E1,1.3852676E1,2.4886604E1,6.452469E1,9.195072E0,1.5252003E1,3.586232E1,7.80083E1,1.8082726E1,5.7624054E0,1.0702629E0,1.8443298E1,3.8825684E1,3.2667518E0,4.390039E1,3.0371582E1,1.849494E0,0E0,4.5654297E-2,4.7229004E-1,1.2329102E0,5.666504E0,0E0,8.297949E-1,0E0,1.963994E0,9.797822E-1,4.019165E0,3.7218285E-1,1.9502354E0,8.9165497E-1,8.2416916E-1,9.905151E-1,5.8013916E-1,7.7402954E0,1.7331848E0,5.283432E0,3.8598938E0,3.937416E0,0E0,1.0296507E0,2.480266E0,3.5467556E0,2.9470117E0,0E0,0E0,4.0249825E-1,3.6627877E-1,5.463135E0,1.998352E0,2.934986E0,2.903719E0,9.8236084E-2,2.8552246E0,5.5449524E0,9.900976E0,1.1658707E0,1.763379E1,1.3329386E1,1.3111267E1,3.621618E0,3.4863005E0,3.9663925E0,8.259132E0,3.2269516E0,1.2054726E1,6.4496756E-2,2.39859E0,1.1706894E1,1.4324095E1,8.949907E0,9.135788E0,1.581727E0,2.8900118E0,3.581306E0,9.851608E0,1.0103691E0,1.1733093E1,2.870965E-1,1.650336E0,7.8222656E-1,4.954956E0,5.8089905E0,7.360901E0,3.4779458E0,0E0,2.8970032E0,2.969143E0,2.0872297E0,1.8572733E0,9.085373E0,7.1894817E0,1.8460102E1,2.992424E0,3.3596115E0,6.4233575E0,5.946514E0,4.4412274E0,2.8981578E0,0E0,3.8368328E0,0E0,6.0147896E0,4.5804763E0,9.538902E0,1.3287301E0,5.0851703E0,1.4471741E0,1.5611954E0,0E0,7.6119156E0,1.7404167E1,3.0809681E0,6.560623E0,1.3916868E1,2.945469E0,1.5171875E1,8.767675E0,3.5886002E0,3.245605E0,3.4733925E0,9.765381E0,1.2835838E1,5.9555054E0,3.450525E1,2.3806763E1,1.9685125E0,1.2173325E1,4.1107254E0,0E0,2.3193896E0,1.0246344E0,1.3508545E1,2.0754913E1,3.015421E0,3.532837E1,1.6018362E0,2.1920967E0,1.0175415E1,2.5276611E1,4.439377E0,1.0024658E1,0E0,0E0,0E0,0E0,0E0,0E0,0E0,0E0,0E0,0E0,0E0,0E0,0E0,0E0,0E0,0E0,0E0,0E0,0E0,0E0,0E0,0E0,0E0,0E0,0E0,0E0,0E0,0E0,0E0,0E0,0E0,0E0,0E0,0E0,0E0,0E0,0E0,0E0,0E0,0E0,0E0,0E0,0E0,0E0,0E0,0E0,0E0,0E0,0E0,0E0,0E0,0E0,0E0,0E0,0E0,0E0,0E0,0E0,0E0,0E0,0E0,0E0,0E0,0E0,0E0,0E0,0E0,0E0,0E0,0E0,0E0,0E0,0E0,0E0,0E0,0E0,0E0,0E0,0E0,0E0,0E0,0E0,0E0,0E0,0E0,0E0,0E0,0E0,0E0,0E0,0E0,0E0,0E0,0E0,0E0,0E0,0E0,0E0,0E0,0E0,0E0,0E0,0E0,0E0,0E0,0E0,0E0,0E0,0E0,0E0,0E0,0E0,0E0,0E0,0E0,0E0,0E0,0E0,0E0,0E0,0E0,0E0,0E0,0E0,0E0,0E0,0E0,0E0,0E0,0E0,0E0,0E0,0E0,0E0,0E0,0E0,0E0,0E0,0E0,0E0,0E0,0E0,0E0,0E0,0E0,0E0,0E0,0E0,0E0,0E0,0E0,0E0,0E0,0E0,0E0,0E0,0E0,0E0,0E0,0E0,0E0,0E0,0E0,0E0,0E0,0E0,0E0,0E0,0E0,0E0,0E0,0E0,0E0,0E0,0E0,0E0,0E0,0E0,0E0,0E0,0E0,0E0,0E0,0E0,0E0,0E0,0E0,0E0,0E0,0E0,0E0,0E0,0E0,0E0,0E0,0E0,0E0,0E0,0E0,0E0,0E0,0E0,0E0,0E0,0E0,0E0,0E0,0E0,0E0,0E0,0E0,0E0,0E0,0E0,0E0,0E0,0E0,0E0,0E0,0E0,0E0,0E0,0E0,0E0,0E0,0E0,0E0,0E0,0E0,0E0],"parents":[2147483647,0,0,1,1,2,2,3,3,4,4,5,5,6,6,7,7,8,8,9,9,10,10,11,11,12,12,13,13,14,14,15,15,16,16,17,17,18,18,19,19,20,20,21,21,22,22,23,23,24,24,25,25,26,26,27,27,28,28,29,29,30,30,31,31,32,32,33,33,34,34,35,35,36,36,37,37,38,38,39,39,40,40,41,41,42,42,43,43,44,44,45,45,46,46,47,47,48,48,49,49,50,50,51,51,52,52,53,53,54,54,55,55,56,56,57,57,58,58,59,59,60,60,61,61,62,62,63,63,64,64,65,65,66,66,67,67,68,68,69,69,70,70,71,71,72,72,73,73,74,74,75,75,76,76,77,77,78,78,79,79,80,80,81,81,82,82,83,83,84,84,85,85,86,86,87,87,88,88,89,89,90,90,92,92,93,93,94,94,95,95,96,96,97,97,98,98,99,99,100,100,101,101,102,102,103,103,104,104,105,105,106,106,107,107,108,108,109,109,110,110,111,111,112,112,113,113,114,114,115,115,116,116,117,117,118,118,119,119,120,120,121,121,122,122,123,123,124,124,125,125,126,126,127,127,129,129,130,130,131,131,132,132,134,134,136,136,137,137,138,138,139,139,140,140,141,141,142,142,143,143,144,144,145,145,146,146,147,147,148,148,149,149,151,151,152,152,153,153,154,154,157,157,158,158,159,159,160,160,161,161,162,162,163,163,164,164,165,165,166,166,167,167,168,168,169,169,170,170,171,171,172,172,173,173,174,174,175,175,176,176,177,177,178,178,179,179,180,180,181,181,182,182,183,183,184,184,185,185,186,186,187,187,188,188,189,189,190,190,191,191,192,192,193,193,194,194,195,195,197,197,198,198,199,199,200,200,201,201,202,202,203,203,204,204,205,205,206,206,207,207,208,208,209,209,211,211,213,213,214,214,215,215,216,216,217,217,218,218,219,219,221,221,222,222,223,223,224,224,225,225,226,226,227,227,228,228,229,229,230,230,231,231,232,232,233,233,234,234,235,235,236,236,237,237,238,238,239,239,241,241,242,242,243,243,244,244,245,245,246,246,247,247,248,248,249,249,250,250,251,251,252,252],"right_children":[2,4,6,8,10,12,14,16,18,20,22,24,26,28,30,32,34,36,38,40,42,44,46,48,50,52,54,56,58,60,62,64,66,68,70,72,74,76,78,80,82,84,86,88,90,92,94,96,98,100,102,104,106,108,110,112,114,116,118,120,122,124,126,128,130,132,134,136,138,140,142,144,146,148,150,152,154,156,158,160,162,164,166,168,170,172,174,176,178,180,182,-1,184,186,188,190,192,194,196,198,200,202,204,206,208,210,212,214,216,218,220,222,224,226,228,230,232,234,236,238,240,242,244,246,248,250,252,254,-1,256,258,260,262,-1,264,-1,266,268,270,272,274,276,278,280,282,284,286,288,290,292,-1,294,296,298,300,-1,-1,302,304,306,308,310,312,314,316,318,320,322,324,326,328,330,332,334,336,338,340,342,344,346,348,350,352,354,356,358,360,362,364,366,368,370,372,374,376,378,-1,380,382,384,386,388,390,392,394,396,398,400,402,404,-1,406,-1,408,410,412,414,416,418,420,-1,422,424,426,428,430,432,434,436,438,440,442,444,446,448,450,452,454,456,458,-1,460,462,464,466,468,470,472,474,476,478,480,482,-1,-1,-1,-1,-1,-1,-1,-1,-1,-1,-1,-1,-1,-1,-1,-1,-1,-1,-1,-1,-1,-1,-1,-1,-1,-1,-1,-1,-1,-1,-1,-1,-1,-1,-1,-1,-1,-1,-1,-1,-1,-1,-1,-1,-1,-1,-1,-1,-1,-1,-1,-1,-1,-1,-1,-1,-1,-1,-1,-1,-1,-1,-1,-1,-1,-1,-1,-1,-1,-1,-1,-1,-1,-1,-1,-1,-1,-1,-1,-1,-1,-1,-1,-1,-1,-1,-1,-1,-1,-1,-1,-1,-1,-1,-1,-1,-1,-1,-1,-1,-1,-1,-1,-1,-1,-1,-1,-1,-1,-1,-1,-1,-1,-1,-1,-1,-1,-1,-1,-1,-1,-1,-1,-1,-1,-1,-1,-1,-1,-1,-1,-1,-1,-1,-1,-1,-1,-1,-1,-1,-1,-1,-1,-1,-1,-1,-1,-1,-1,-1,-1,-1,-1,-1,-1,-1,-1,-1,-1,-1,-1,-1,-1,-1,-1,-1,-1,-1,-1,-1,-1,-1,-1,-1,-1,-1,-1,-1,-1,-1,-1,-1,-1,-1,-1,-1,-1,-1,-1,-1,-1,-1,-1,-1,-1,-1,-1,-1,-1,-1,-1,-1,-1,-1,-1,-1,-1,-1,-1,-1,-1,-1,-1,-1,-1,-1,-1,-1,-1,-1,-1,-1,-1,-1,-1,-1,-1,-1,-1,-1],"split_conditions":[1.153586E0,4.596114E-1,4.596114E-1,9.253364E-2,1.1651582E0,5.4643226E-1,5.4643226E-1,1.1651582E0,3.1030114E0,-5.8765896E-2,1.396591E0,1.1651582E0,1.1651582E0,1.396591E0,1.1651582E0,-4.7736812E-1,3.1030114E0,1.1651582E0,1.0003308E0,1.396591E0,3.1030114E0,-5.8765896E-2,-5.126645E-1,-5.126645E-1,-5.126645E-1,3.1030114E0,3.1030114E0,1.1651582E0,-6.6396403E-1,1.396591E0,1.396591E0,-2.0807455E0,-2.9416513E-1,-4.7736812E-1,-2.1006544E-1,-4.7736812E-1,1.0003308E0,1.1651582E0,1.1296577E0,3.1030114E0,-8.1526357E-1,1.396591E0,1.396591E0,3.1030114E0,3.1030114E0,1.9747442E-1,1.0003308E0,-1.0662031E0,3.1030114E0,1.4647093E0,-4.7736812E-1,5.673431E-1,8.490313E-1,1.3029299E0,-3.7115428E-1,3.1030114E0,-2.1006544E-1,1.1651582E0,1.1651582E0,3.1030114E0,1.9747442E-1,4.1097426E0,2.3335705E0,-5.126645E-1,1.1296577E0,-5.126645E-1,4.875181E0,5.4677755E-1,-2.0807455E0,-5.126645E-1,9.6288127E-1,-2.0807455E0,-2.9416513E-1,-4.7736812E-1,4.875181E0,-3.7115428E-1,5.673431E-1,1.4542295E0,9.6288127E-1,-2.9416513E-1,-3.6136496E-1,4.82023E-1,3.1030114E0,1.9747442E-1,-2.9416513E-1,8.781163E-2,2.5418427E0,-8.1526357E-1,-1.1178627E0,1.4542295E0,8.490313E-1,-5.328836E-2,4.82023E-1,1.9747442E-1,1.9747442E-1,1.1296577E0,-4.7736812E-1,-4.7736812E-1,2.0384166E0,4.1097426E0,7.588142E-1,3.1030114E0,4.1097426E0,1.9081281E0,1.1198915E0,3.8107485E-1,1.1296577E0,-5.1660948E-2,4.1097426E0,6.977318E-1,1.7315549E0,-3.6136496E-1,-5.126645E-1,4.1097426E0,4.1097426E0,-1.1178627E0,-2.0807455E0,3.1030114E0,-5.8765896E-2,1.9747442E-1,1.7568285E0,8.490313E-1,3.1030114E0,1.9747442E-1,-5.1660948E-2,1.0003308E0,6.977318E-1,-6.6396403E-1,-5.3053923E-2,3.1030114E0,2.9563484E0,1.1296577E0,-2.0807455E0,-5.8569837E-2,-1.5911713E-1,-5.639823E-2,1.0057434E0,1.1296577E0,-8.1526357E-1,-6.6396403E-1,-1.4167133E-1,4.82023E-1,-4.7736812E-1,1.0003308E0,5.4677755E-1,4.875181E0,1.1516304E0,2.7268655E0,1.1296577E0,-2.9416513E-1,6.469808E-2,4.82023E-1,-5.1660948E-2,-1.5911713E-1,8.490313E-1,3.1871792E-2,-3.8738225E-2,5.673431E-1,1.1651582E0,1.9747442E-1,-8.1526357E-1,4.875181E0,7.588142E-1,-9.665631E-1,-5.1660948E-2,-5.1660948E-2,5.673431E-1,1.2352264E0,-2.9416513E-1,5.4643226E-1,1.605529E0,-3.7115428E-1,7.762605E-1,2.841607E0,1.605529E0,1.9236752E0,-2.9416513E-1,4.3203604E-1,4.875181E0,1.9747442E-1,8.781163E-2,4.82023E-1,1.1198915E0,-2.9416513E-1,4.1097426E0,3.352131E0,-1.5911713E-1,7.588142E-1,4.1097426E0,1.1198915E0,-1.1178627E0,3.4871788E0,3.1030114E0,4.875181E0,4.1097426E0,4.875181E0,6.469808E-2,-4.7736812E-1,3.3128865E0,1.1296577E0,4.82023E-1,6.61519E-1,1.2352264E0,3.1030114E0,5.673431E-1,9.6288127E-1,-4.7736812E-1,-4.7736812E-1,-1.5911713E-1,1.1198915E0,4.432648E-2,5.673431E-1,8.253517E-2,8.490313E-1,4.1097426E0,1.1198915E0,1.9081281E0,5.673431E-1,1.1198915E0,4.82023E-1,1.3636758E-2,4.1097426E0,4.1097426E0,1.1296577E0,1.1198915E0,-6.6396403E-1,-5.1660948E-2,-2.9416513E-1,3.4871788E0,-1.5911713E-1,-5.1660948E-2,4.1097426E0,1.1198915E0,-3.6136496E-1,4.1097426E0,4.1097426E0,4.1097426E0,1.7568285E0,1.1516304E0,2.2735928E-1,1.1468177E-1,6.977318E-1,4.82023E-1,1.4542295E0,1.1296577E0,1.7568285E0,1.4542295E0,-2.0807455E0,4.82023E-1,1.9747442E-1,4.1097426E0,3.1030114E0,2.9563484E0,-3.263146E-2,2.3954885E-2,-6.0881432E-2,-4.119798E-2,-5.828041E-2,-3.2921925E-2,-5.722726E-2,-5.2431207E-2,-7.041529E-4,-5.100083E-2,-5.118873E-4,-4.04282E-2,-2.9160862E-3,-4.6497267E-2,2.2013431E-2,-1.9625057E-2,-5.2025642E-2,-4.4219714E-2,-3.0794455E-2,-4.9838785E-2,-2.5827093E-2,1.781674E-2,5.8885436E-3,4.551327E-2,-2.4262363E-2,2.1904563E-3,-3.4886725E-2,8.255731E-3,-5.5512853E-2,-3.932001E-2,-4.381418E-2,4.769227E-3,-5.3242784E-2,-4.3272827E-2,-4.8728224E-2,3.7097737E-2,-3.9176434E-2,-2.9803291E-2,-2.0737907E-2,-3.8417947E-2,-2.9160862E-3,-3.4130614E-2,-3.7159905E-2,2.1831935E-2,4.5040265E-2,-3.3285204E-2,-1.3399881E-2,4.432648E-2,9.54854E-2,3.31429E-2,3.7714448E-2,3.5832878E-3,-5.8365375E-2,-4.18157E-2,-5.621294E-2,-4.791846E-2,-3.8313285E-2,-2.0313568E-3,-2.5630826E-2,1.1727868E-2,-5.5393245E-2,-3.913036E-2,-2.8135926E-2,-4.3442484E-2,-2.0652715E-2,-3.4915797E-2,2.3021396E-2,-2.643962E-2,-5.550338E-2,-2.050553E-2,-2.3872823E-2,-3.684585E-2,-6.189636E-3,1.935959E-2,-1.8405383E-2,9.0056425E-3,1.24460785E-2,-2.3462355E-2,8.141449E-2,2.1831935E-2,5.7093143E-2,9.389881E-2,-1.9702153E-2,7.770595E-2,-4.1221555E-2,-8.18481E-3,-1.7324146E-2,-3.3947352E-2,-3.796677E-2,-9.824223E-3,-2.3606375E-3,2.8042534E-2,-4.3053817E-2,-2.5976163E-3,1.203826E-2,5.486971E-2,-4.82243E-3,4.5921873E-2,2.3094283E-2,1.0461924E-1,-1.145245E-2,-3.2079503E-2,-6.248537E-3,-4.2888947E-2,-3.428301E-2,3.1871792E-2,4.184931E-2,2.5342254E-2,-4.013289E-2,8.255731E-3,7.9084724E-2,-1.9288149E-2,-2.1225872E-2,-4.577633E-2,-1.678831E-2,3.4042016E-2,-5.454888E-2,-1.7331166E-2,-4.4508394E-2,-1.7980928E-2,-4.4391077E-2,9.86858E-3,-3.1079236E-2,-5.0583746E-2,-1.6271079E-2,2.4962878E-2,-3.9662156E-2,-3.0001253E-2,-5.2342694E-2,5.8885436E-3,5.8885436E-3,7.594079E-2,1.4016183E-2,-3.0559257E-2,-3.494392E-2,1.1243499E-2,2.7470617E-3,9.54854E-2,-8.339501E-3,1.1331272E-2,-1.364206E-2,-4.017415E-2,-1.3987441E-3,-1.987242E-2,7.553461E-2,6.2859203E-3,-4.096449E-2,-2.0680657E-2,-4.6314555E-3,-2.6415143E-2,1.8661503E-2,-3.6077123E-2,4.368305E-2,-3.263146E-2,1.8073935E-2,4.3650817E-2,1.0181662E-2,-1.922319E-2,3.340602E-2,5.980555E-2,-3.796677E-2,1.3636758E-2,7.03881E-2,-5.6584245E-3,4.2246226E-2,7.1810715E-2,1.4190368E-1,8.4387615E-2,-2.620151E-2,-5.1824268E-2,-2.3044609E-3,-3.835387E-2,-1.187396E-2,1.7457137E-2,2.1565158E-2,5.2195966E-2,-2.6831292E-3,1.2097743E-2,-4.7543306E-2,-2.022185E-2,4.1622605E-2,2.7055323E-2,-2.242214E-2,5.5666674E-2,-1.6723717E-2,-4.4997644E-2,4.309922E-3,-1.3181621E-2,7.2787054E-2,-9.824223E-3,3.440633E-2,1.2861139E-2,6.244011E-3,2.894177E-2,5.8674235E-2,-1.5189457E-2,5.9440043E-2,-1.999402E-3,8.619686E-2,2.426203E-2,-4.7724105E-2,2.490582E-3,1.3053022E-2,2.7296344E-2,-4.1305507E-3,7.1417294E-2,-3.5359103E-2,3.7097737E-2,-4.1305507E-3,-5.065403E-2,5.131632E-2,7.171168E-2,6.2538266E-2,1.14978306E-1,-3.3777084E-2,2.0741789E-2,6.711933E-2,8.8230275E-2,-9.824223E-3,4.480448E-2,-2.050553E-2,1.6138388E-2,-3.3864812E-3,9.50826E-2,1.2460321E-1,5.3500433E-2,7.170516E-2,1.1725625E-1,1.6616876E-1,1.387823E-1],"split_indices":[0,13,13,3,1,3,3,1,6,3,13,1,1,13,1,13,6,1,3,13,6,3,3,3,3,6,6,1,3,13,13,19,14,13,3,13,3,1,17,6,3,13,13,6,6,2,3,19,6,15,13,7,3,3,15,6,3,1,1,6,2,10,13,3,17,3,5,15,19,3,19,19,14,13,5,15,7,3,19,14,3,9,6,2,14,15,14,3,3,3,3,0,9,2,2,17,13,13,15,10,8,6,10,3,4,14,17,19,10,3,14,3,3,10,10,3,19,6,3,2,3,3,6,2,19,3,3,3,0,6,15,17,19,0,14,0,15,17,3,3,15,9,13,3,15,5,3,15,17,14,0,9,19,14,3,0,0,7,1,2,3,5,8,3,19,19,7,15,14,3,3,15,15,15,3,15,14,15,5,2,15,9,4,14,10,14,14,8,10,4,3,14,6,5,10,5,0,13,12,17,9,15,15,6,7,19,13,13,14,4,0,7,0,3,10,4,3,7,4,9,0,10,10,17,4,3,19,14,14,14,19,10,4,3,10,10,10,3,3,11,0,3,9,3,17,3,3,19,9,2,10,6,15,0,0,0,0,0,0,0,0,0,0,0,0,0,0,0,0,0,0,0,0,0,0,0,0,0,0,0,0,0,0,0,0,0,0,0,0,0,0,0,0,0,0,0,0,0,0,0,0,0,0,0,0,0,0,0,0,0,0,0,0,0,0,0,0,0,0,0,0,0,0,0,0,0,0,0,0,0,0,0,0,0,0,0,0,0,0,0,0,0,0,0,0,0,0,0,0,0,0,0,0,0,0,0,0,0,0,0,0,0,0,0,0,0,0,0,0,0,0,0,0,0,0,0,0,0,0,0,0,0,0,0,0,0,0,0,0,0,0,0,0,0,0,0,0,0,0,0,0,0,0,0,0,0,0,0,0,0,0,0,0,0,0,0,0,0,0,0,0,0,0,0,0,0,0,0,0,0,0,0,0,0,0,0,0,0,0,0,0,0,0,0,0,0,0,0,0,0,0,0,0,0,0,0,0,0,0,0,0,0,0,0,0,0,0,0,0,0,0,0,0,0,0,0,0,0,0,0,0,0,0],"split_type":[0,0,0,0,0,0,0,0,0,0,0,0,0,0,0,0,0,0,0,0,0,0,0,0,0,0,0,0,0,0,0,0,0,0,0,0,0,0,0,0,0,0,0,0,0,0,0,0,0,0,0,0,0,0,0,0,0,0,0,0,0,0,0,0,0,0,0,0,0,0,0,0,0,0,0,0,0,0,0,0,0,0,0,0,0,0,0,0,0,0,0,0,0,0,0,0,0,0,0,0,0,0,0,0,0,0,0,0,0,0,0,0,0,0,0,0,0,0,0,0,0,0,0,0,0,0,0,0,0,0,0,0,0,0,0,0,0,0,0,0,0,0,0,0,0,0,0,0,0,0,0,0,0,0,0,0,0,0,0,0,0,0,0,0,0,0,0,0,0,0,0,0,0,0,0,0,0,0,0,0,0,0,0,0,0,0,0,0,0,0,0,0,0,0,0,0,0,0,0,0,0,0,0,0,0,0,0,0,0,0,0,0,0,0,0,0,0,0,0,0,0,0,0,0,0,0,0,0,0,0,0,0,0,0,0,0,0,0,0,0,0,0,0,0,0,0,0,0,0,0,0,0,0,0,0,0,0,0,0,0,0,0,0,0,0,0,0,0,0,0,0,0,0,0,0,0,0,0,0,0,0,0,0,0,0,0,0,0,0,0,0,0,0,0,0,0,0,0,0,0,0,0,0,0,0,0,0,0,0,0,0,0,0,0,0,0,0,0,0,0,0,0,0,0,0,0,0,0,0,0,0,0,0,0,0,0,0,0,0,0,0,0,0,0,0,0,0,0,0,0,0,0,0,0,0,0,0,0,0,0,0,0,0,0,0,0,0,0,0,0,0,0,0,0,0,0,0,0,0,0,0,0,0,0,0,0,0,0,0,0,0,0,0,0,0,0,0,0,0,0,0,0,0,0,0,0,0,0,0,0,0,0,0,0,0,0,0,0,0,0,0,0,0,0,0,0,0,0,0,0,0,0,0,0,0,0,0,0,0,0,0,0,0,0,0,0,0,0,0,0,0,0,0,0,0,0,0,0,0,0,0,0,0,0,0,0,0,0,0,0,0,0,0,0,0,0,0,0,0,0,0,0,0],"sum_hessian":[2.9513123E4,1.6857115E4,1.2656007E4,1.0869198E4,5.987917E3,4.7920786E3,7.863928E3,8.061241E3,2.807957E3,3.8287827E3,2.159134E3,3.6810806E3,1.1109982E3,4.7654146E3,3.0985134E3,6.0780894E3,1.983152E3,2.741378E3,6.6579094E1,2.0301775E3,1.7986051E3,1.4750824E3,6.840517E2,1.724754E3,1.9563264E3,5.3958154E2,5.714167E2,2.8559521E3,1.9094625E3,1.1255422E3,1.9729712E3,2.755114E3,3.3229753E3,1.9128561E3,7.029589E1,1.9327329E3,8.086451E2,5.655991E1,1.0019184E1,1.501908E3,5.2826953E2,1.695666E3,1.0293903E2,7.036053E2,7.714772E2,1.7145732E2,5.1259436E2,5.478231E2,1.1769309E3,5.0968558E2,1.4466409E3,5.1679596E2,2.2785563E1,5.0968558E2,6.1731102E1,1.118755E3,1.7371973E3,4.0513055E2,1.504332E3,6.7225494E2,4.5328726E2,9.938384E2,9.791328E2,9.695985E0,2.745418E3,2.322673E3,1.00030237E3,6.6611414E2,1.246742E3,4.831832E1,2.1977564E1,5.654375E2,1.3672954E3,6.4785333E2,1.6079175E2,2.5694359E1,3.0865551E1,3.3935945E0,6.6255894E0,1.4367833E3,6.5124695E1,2.0103008E2,3.2723947E2,1.256438E3,4.392281E2,4.7671925E1,5.5267113E1,6.3541016E2,6.819509E1,7.1039246E2,6.10847E1,5.655991E0,1.6580133E2,3.8638498E2,1.262094E2,1.7775972E1,5.300471E2,1.1250574E3,5.1873516E1,4.948184E2,1.4867176E1,2.9152594E2,1.155115E3,1.28795E2,3.8800098E2,9.372785E0,1.3412779E1,3.5551944E2,1.5416615E2,4.1046333E1,2.0684767E1,1.0070896E3,1.1166542E2,7.398036E2,9.973936E2,1.5206535E2,2.530652E2,4.6492245E2,1.0394095E3,6.215126E2,5.0742317E1,8.403187E0,4.448841E2,9.534385E2,4.0399937E1,6.743557E2,3.047771E2,4.2015934E0,5.494391E0,1.7102101E3,1.0352079E3,1.1853341E3,1.137339E3,9.9238403E2,7.9183874E0,6.506005E2,1.5513575E1,3.716794E0,1.2430251E3,2.9087954E1,1.923037E1,9.534385E0,1.244318E1,6.14079E0,5.592967E2,9.7622406E2,3.9107138E2,1.5481255E2,4.930408E2,1.5933734E2,1.4543977E0,1.8583971E1,7.1103888E0,5.8175907E0,2.504796E1,1.7775972E0,1.6159974E0,3.5551944E0,3.070395E0,9.397025E2,4.970808E2,4.5086327E1,2.0038368E1,4.928792E1,1.5174216E2,2.8780914E2,3.9430336E1,8.112307E1,1.175315E3,2.0458527E2,2.3464282E2,3.668314E1,1.0988782E1,4.5894325E1,9.372785E0,1.4527817E2,4.9013202E2,4.6863923E0,6.3508698E1,6.0389825E2,1.0649423E2,4.5409527E1,1.5675175E1,4.233913E1,1.23462204E2,1.0019184E1,3.7636578E2,3.070395E0,1.23139E2,1.0988782E1,6.787189E0,1.7468932E2,3.5535782E2,2.8005234E2,8.4500507E2,5.041912E1,1.4543977E0,4.490857E2,4.5732727E1,3.716794E0,1.1150382E1,2.6583157E2,2.5694359E1,1.0811023E3,7.401268E1,1.0552463E2,2.3270363E1,2.3997562E2,1.4802536E2,7.9183874E0,1.4543977E0,4.6863923E0,8.726386E0,9.6313446E1,2.59206E2,1.4947977E2,4.6863923E0,9.211185E0,3.183515E1,1.9553568E1,1.1311982E0,3.5762024E2,6.4946936E2,3.3935944E1,7.772948E1,6.9358606E2,4.6217525E1,9.418033E2,5.559031E1,4.7671925E1,1.0439343E2,1.793757E1,2.3512762E2,3.5794342E2,1.0697903E2,5.072616E2,5.3214795E2,1.2119981E1,6.0939264E2,3.9268738E1,1.1473581E1,2.4239962E0,5.9791903E0,3.5988263E2,8.5001465E1,1.0827183E1,9.4261127E2,1.3735978E1,2.6663958E1,2.3076443E2,4.4359128E2,3.668314E1,2.6809396E2,2.7471955E0,1.4543977E0,1.701322E3,8.887986E0,1.0290671E3,6.14079E0,7.7648676E2,4.0884735E2,5.655991E0,1.131683E3,1.6159974E0,6.30239E0,3.3935945E0,1.2119981E1,2.1007967E0,1.6159974E0,2.482172E2,9.94808E2,2.1331165E1,7.7567873E0,1.6967972E1,2.2623963E0,2.1007967E0,7.433588E0,3.2319949E0,9.211185E0,4.8479924E0,1.2927979E0,5.426519E2,1.6644773E1,9.6814404E2,8.079987E0,3.013835E2,8.968786E1,1.5368135E2,1.1311982E0,2.566204E2,2.3642043E2,1.1247342E2,4.6863926E1,3.3935945E0,1.5190375E1,1.4543977E0,5.655991E0,4.6863923E0,1.1311982E0,2.3593561E1,1.4543977E0,1.2927979E0,2.2623963E0,1.6159974E0,1.4543977E0,5.9468704E1,8.8023376E2,1.6256934E2,3.3451147E2,3.846074E1,6.6255894E0,7.433588E0,1.260478E1,3.4905544E1,1.4382377E1,5.8660706E1,9.308145E1,1.3364299E2,1.5416615E2,1.6644773E1,2.2785563E1,7.708308E1,4.0399933E0,7.6792194E2,4.0739294E2,9.2111855E1,1.1247342E2,1.7759811E2,5.704471E1,2.8441555E1,8.241587E0,5.3327913E0,5.655991E0,2.9572752E1,1.6321573E1,7.433588E0,1.9391968E0,1.3687498E2,8.403187E0,3.2206827E2,1.6806374E2,3.5551944E0,1.1311982E0,5.7206306E1,6.30239E0,1.7452772E1,5.8644543E2,8.1446266E1,2.504796E1,1.1311982E1,3.4097546E1,6.14079E0,9.534385E0,1.6806374E1,2.5532759E1,1.1877581E2,4.6863923E0,8.241587E0,1.7775972E0,1.8131491E2,1.9505089E2,1.7775972E0,1.2927979E0,1.2039181E2,2.7471955E0,5.3327913E0,5.655991E0,1.4543977E0,5.3327913E0,1.7210373E2,2.5855958E0,3.3483466E2,2.0523167E1,2.7536597E2,4.6863923E0,7.9135394E2,5.3651115E1,4.5571125E1,4.8479924E0,1.2103821E2,3.280475E2,4.363193E1,2.1007967E0,2.1007967E0,1.6159974E0,2.4239962E0,8.726386E0,2.5516599E2,1.0665583E1,2.4401562E1,1.2927979E0,9.455201E2,1.3558218E2,1.4543977E1,5.9468704E1,6.771029E1,3.781434E1,3.070395E0,2.0199968E1,4.5571125E1,1.944045E2,1.1974541E2,2.8279955E1,4.6863923E0,3.2319949E0,1.9391968E0,2.7471955E0,5.3004715E1,4.330873E1,2.4611641E2,1.3089579E1,8.548626E1,6.3993496E1,3.5551944E0,1.1311982E0,2.1007967E0,7.1103888E0,1.3412779E1,1.842237E1,5.1711917E0,1.4382377E1,3.2530026E2,3.2319946E1,6.150486E2,3.4420746E1,1.793757E1,1.5998374E1,3.118875E1,4.6540726E1,2.466012E2,4.469849E2,1.6321573E1,2.9895952E1,6.892229E2,2.525804E2,5.2681515E1,2.9087954E0,2.5371159E1,2.2300764E1,5.3651115E1,5.0742317E1,1.6806374E1,1.1311982E0,8.047667E1,1.5465096E2,8.112307E1,2.7682034E2,1.0455503E2,2.4239962E0,4.8334482E2,2.3916761E1,5.1518E2,1.6967972E1,9.857584E0,2.2623963E0,2.8360754E2,3.2578506E2,1.7775972E0,3.749114E1,1.2927979E0,1.1311982E0,1.7775972E0,4.2015934E0,1.9117249E2,1.6871013E2,4.5409527E1,3.9591938E1,8.079987E0,2.7471955E0,6.268454E2,3.157659E2,1.1311982E0,1.260478E1,4.0399933E0,2.2623964E1,2.5855958E0,2.2817883E2,4.285625E2,1.5028776E1,1.9553568E1,1.7129572E1,9.954544E1,1.6854852E2],"tree_param":{"num_deleted":"0","num_feature":"21","num_nodes":"483","size_leaf_vector":"1"}},{"base_weights":[-2.6964515E-1,-7.86812E-1,3.9515743E-1,-8.6510444E-1,-5.6278855E-2,4.045595E-2,1.084391E0,-9.718688E-1,-5.980619E-1,-3.3883548E-1,5.4158807E-1,-1.4257233E-1,7.013929E-1,4.4242492E-1,1.4893197E0,-1.0401446E0,-6.632067E-1,-7.415201E-1,-2.2818044E-1,-5.5354303E-1,-2.1209218E-2,2.051025E-1,9.6051747E-1,-4.7358724E-1,1.0226549E-1,1.9727132E-1,9.5306194E-1,-1.3738623E-1,7.8480023E-1,1.1150259E0,2.0130222E0,-1.0928181E0,-7.7131236E-1,-7.9471326E-1,-1.9598776E-1,-7.8092426E-1,-8.871331E-2,-5.785697E-1,-3.7252966E-2,-6.4675975E-1,1.6817716E-1,-4.2727265E-1,1.6994773E-1,-1.1478666E-1,8.8501215E-1,7.157531E-1,1.337867E0,-7.848406E-1,-2.7596647E-1,4.568148E-1,-7.753098E-2,2.9801002E-2,8.2764083E-1,5.970846E-1,1.2178751E0,-8.490911E-1,-8.684355E-3,6.627638E-1,1.5960827E0,1.4672034E0,9.317967E-1,1.8318721E0,2.3879116E0,-1.1271038E0,-9.794031E-1,-9.9112636E-1,-6.286282E-1,-9.567801E-1,-6.731372E-1,-2.6155335E-1,5.3297323E-1,-5.213308E-1,-8.5333216E-1,-3.1283396E-1,2.9459825E-1,-6.409619E-1,4.3516168E-1,-1.9214894E-1,4.0244082E-1,-9.017652E-1,-5.2895874E-1,-2.9302907E-1,6.275822E-1,-6.76709E-1,-2.3742358E-1,5.4597482E-2,6.9220525E-1,1.7255266E-1,-4.7982523E-1,6.6573036E-1,1.6793718E0,5.727152E-1,1.2788479E0,7.4798036E-1,1.6136477E0,-5.583306E-1,-9.081973E-1,-5.607794E-1,-6.666683E-2,1.485072E-1,7.5472796E-1,-3.4922692E-1,1.3426942E-1,-3.111833E-1,2.39227E-1,1.9500233E-1,1.2494724E0,3.7961617E-1,1.0069559E0,1.0123048E0,1.6192409E0,-9.914893E-1,-1.3068797E-1,3.0002868E-1,-3.0959684E-1,8.0391634E-1,2.4340987E-1,1.1253282E0,1.8124968E0,7.532885E-1,1.5662619E0,3.5726902E-1,1.0517144E0,1.4372227E0,1.9976544E0,8.8967085E-1,2.4170136E0,-1.1657463E0,-1.0918361E0,-1.0407706E0,-8.020429E-1,-1.033591E0,-7.290779E-1,-6.6143036E-1,5.066177E-2,-1.0481662E0,-8.9784086E-1,-7.91062E-1,-4.5062512E-1,-4.4793257E-1,-2.5976066E-2,2.589937E-1,1.0201806E0,-6.7824364E-1,-3.2776475E-1,-9.4597197E-1,-7.4772E-1,-5.851596E-4,-4.48057E-1,5.8263886E-1,-5.7523835E-2,6.793353E-1,-6.643049E-1,8.512361E-2,1.2940886E0,-2.712828E-1,5.942279E-1,3.2720092E-1,1.3786597E0,-6.146356E-1,-9.1888493E-1,-7.2655207E-1,-3.4092638E-1,2.3277837E-1,-5.2525645E-1,-3.4307674E-1,9.0074474E-1,-8.816366E-1,-4.8080468E-1,-4.6524715E-2,-1.9911739E-1,3.0852345E-1,-1.1524659E-1,2.1601672E0,5.8510894E-1,-1.3210164E-1,7.284727E-1,-6.237902E-1,4.1804794E-2,9.88348E-1,2.2205502E-1,1.0384424E0,2.4688406E0,7.035394E-1,-8.236938E-2,1.6152976E0,-2.3860987E-2,-3.1262448E-1,9.502148E-1,1.7395321E0,9.359867E-1,-6.202166E-1,1.3796991E-1,-1.1057967E0,-8.2450163E-1,-6.109503E-1,-1.22430354E-1,2.0932938E-1,-2.1471773E-1,-7.773227E-2,3.0793312E-1,-2.6670358E-1,7.914926E-1,-5.425503E-1,-2.245636E-1,-3.7169072E-1,2.5220016E-1,-7.01719E-1,-2.2873251E-1,-3.8101506E-1,3.5648194E-1,1.5709876E0,1.0147247E-1,1.5760287E0,4.2704394E-1,1.3873636E0,3.2353416E-1,5.99905E-1,1.2831365E0,6.9776934E-1,1.1553638E0,1.8043332E0,1.2388748E0,-1.0118003E0,2.2447167E-3,1.0733963E0,-5.60486E-1,2.805432E-2,6.743014E-1,-5.953952E-1,-1.21732034E-1,6.8355286E-1,1.1765105E0,8.918794E-2,8.9352274E-1,1.3720248E0,8.019802E-1,2.1090815E0,1.0302491E0,-7.150694E-1,8.3685964E-1,1.3414856E0,1.8549135E0,-1.903947E-1,5.8352077E-1,9.219461E-1,1.4253628E0,1.186221E0,1.6587918E0,1.8840725E0,1.2980789E-1,-1.4490004E-1,1.4203192E0,1.9459264E0,2.5219195E0,-5.8675777E-2,-5.418331E-2,-4.762157E-2,-5.602281E-2,-5.259964E-2,-2.364584E-2,-4.065964E-2,8.61173E-3,-4.479658E-2,-5.330782E-2,-4.7689956E-2,-1.6001774E-2,-3.5854347E-2,-1.6068017E-2,-7.4724853E-3,1.11268E-1,-1.9661536E-2,-5.2707966E-2,-3.3755887E-2,-4.6551805E-2,-2.8320346E-2,-4.31028E-2,-1.0510387E-2,-3.2224953E-2,1.0361797E-2,-2.428473E-2,7.846933E-3,-1.4012963E-2,4.588215E-2,-9.114231E-3,6.368043E-2,-2.0064944E-2,1.1721579E-2,-3.519632E-2,-2.0262087E-2,1.1808306E-2,-5.1190775E-2,-4.0617853E-2,-4.27064E-2,-3.0953472E-2,-1.7817264E-2,1.10955825E-2,1.4761685E-2,-2.6631912E-2,1.773048E-2,4.8744448E-2,-9.123741E-3,8.352856E-2,-2.6473573E-3,8.362451E-2,-3.7411466E-2,-2.0085772E-2,-7.345445E-3,3.6305867E-2,2.2152334E-2,8.510009E-2,-4.061558E-3,-2.6357666E-2,1.9133098E-2,9.565028E-2,4.717036E-2,1.16436295E-2,3.8079303E-2,9.841975E-2,-4.2832814E-2,-7.6115886E-3,-4.8402883E-2,-3.7861273E-2,-4.8934236E-2,-3.0155335E-2,6.401899E-3,-2.1560267E-2,7.893481E-2,-8.351687E-3,-4.1559916E-2,-1.5668204E-2,-3.734684E-2,1.8680816E-3,3.5898432E-2,8.022759E-2,-4.922001E-2,-1.1593568E-2,-3.390601E-2,-1.5447161E-2,-1.2131201E-3,-1.6457584E-2,6.923325E-3,3.2983944E-2,1.4285216E-2,-1.1055393E-2,3.6217254E-2,1.2949526E-1,1.0236677E-2,4.6896335E-2,-1.90887E-2,8.4224455E-3,5.4919094E-2,1.2271478E-2,-4.3567404E-2,-2.2347976E-2,-2.2332424E-2,5.4484148E-2,2.1027911E-2,6.2969476E-2,2.2794516E-4,3.0901745E-2,6.984482E-2,8.749257E-5,3.5715993E-2,1.3327442E-1,9.175916E-2,3.256453E-2,1.2233646E-2,-3.3708148E-2,8.925807E-2,1.1098413E-2,-2.922864E-2,2.0620236E-2,1.3040829E-3,-3.740666E-2,6.788083E-2,1.9918611E-2,4.296036E-2,9.462684E-2,6.0652938E-2,-2.2305816E-3,-4.1674107E-2,-2.15349E-2,-2.0291742E-3,7.849374E-2,-5.569935E-2,-1.06270425E-2,-5.0035954E-2,-3.6929175E-2,-3.6054336E-2,-2.3264026E-2,2.3295706E-2,-1.8790578E-2,8.137728E-3,5.3151604E-2,-1.3407417E-2,1.7263522E-2,-1.1730633E-2,7.762269E-3,3.4610756E-2,8.197448E-3,-2.553833E-2,2.10333E-2,3.2448247E-2,5.2016854E-2,-4.613481E-2,-2.4447097E-2,-1.3939017E-2,1.4993264E-2,-2.2212312E-2,1.813585E-2,1.0408314E-2,5.2879352E-2,-3.907048E-2,-1.303411E-2,-4.060598E-2,-8.395639E-3,1.2158282E-3,-4.0765278E-2,-5.0269585E-2,1.9129436E-2,1.2966974E-1,-9.785494E-3,-1.9938733E-2,1.1606891E-2,2.7057687E-2,9.516346E-2,6.543508E-2,4.58896E-3,8.022895E-2,3.8267758E-2,2.3177588E-2,4.0924777E-3,3.663416E-2,-1.1908166E-4,7.915514E-2,4.0504817E-2,4.1413594E-2,6.5285186E-3,-1.592226E-2,5.8882672E-2,6.753758E-2,9.8752074E-2,7.7205524E-2,4.5991726E-2,-2.9901324E-2,-5.171836E-2,-2.5009278E-2,1.1696469E-1,-7.6207356E-3,-4.1887354E-2,-8.681583E-3,3.576127E-2,5.2167602E-2,1.8203666E-2,-3.253869E-2,2.4676726E-3,-1.327269E-2,8.514866E-3,-3.7278134E-2,3.5284262E-2,5.2863713E-2,7.9069875E-2,-9.390133E-3,1.326143E-2,3.0747706E-2,8.803071E-2,7.901292E-2,-8.172379E-3,1.1806201E-2,5.887692E-2,-1.4991435E-2,1.0816914E-1,5.8135506E-2,-6.358815E-3,-4.1744526E-2,-1.1051651E-2,3.0704409E-2,7.1102925E-2,1.2334267E-1,6.4135015E-2,9.453522E-2,2.0161295E-2,-2.5700355E-2,3.8562864E-3,-5.1718694E-3,4.161359E-2,4.1817695E-2,7.887964E-2,7.3187955E-2,-1.5676238E-2,7.5006455E-2,4.0281124E-2,8.73835E-2,6.3273996E-2,5.594578E-3,9.519141E-2,1.4893589E-2,-3.3023242E-2,5.522002E-3,9.0502E-2,1.02167465E-1,-9.192168E-3,2.5489882E-2,1.271054E-1],"categories":[],"categories_nodes":[],"categories_segments":[],"categories_sizes":[],"default_left":[0,0,0,0,0,0,0,0,0,0,0,0,0,0,0,0,0,0,0,0,0,0,0,0,0,0,0,0,0,0,0,0,0,0,0,0,0,0,0,0,0,0,0,0,0,0,0,0,0,0,0,0,0,0,0,0,0,0,0,0,0,0,0,0,0,0,0,0,0,0,0,0,0,0,0,0,0,0,0,0,0,0,0,0,0,0,0,0,0,0,0,0,0,0,0,0,0,0,0,0,0,0,0,0,0,0,0,0,0,0,0,0,0,0,0,0,0,0,0,0,0,0,0,0,0,0,0,0,0,0,0,0,0,0,0,0,0,0,0,0,0,0,0,0,0,0,0,0,0,0,0,0,0,0,0,0,0,0,0,0,0,0,0,0,0,0,0,0,0,0,0,0,0,0,0,0,0,0,0,0,0,0,0,0,0,0,0,0,0,0,0,0,0,0,0,0,0,0,0,0,0,0,0,0,0,0,0,0,0,0,0,0,0,0,0,0,0,0,0,0,0,0,0,0,0,0,0,0,0,0,0,0,0,0,0,0,0,0,0,0,0,0,0,0,0,0,0,0,0,0,0,0,0,0,0,0,0,0,0,0,0,0,0,0,0,0,0,0,0,0,0,0,0,0,0,0,0,0,0,0,0,0,0,0,0,0,0,0,0,0,0,0,0,0,0,0,0,0,0,0,0,0,0,0,0,0,0,0,0,0,0,0,0,0,0,0,0,0,0,0,0,0,0,0,0,0,0,0,0,0,0,0,0,0,0,0,0,0,0,0,0,0,0,0,0,0,0,0,0,0,0,0,0,0,0,0,0,0,0,0,0,0,0,0,0,0,0,0,0,0,0,0,0,0,0,0,0,0,0,0,0,0,0,0,0,0,0,0,0,0,0,0,0,0,0,0,0,0,0,0,0,0,0,0,0,0,0,0,0,0,0,0,0,0,0,0,0,0,0,0,0,0,0,0,0,0,0,0,0,0,0,0,0,0,0,0,0,0,0,0,0,0,0,0,0,0,0,0,0,0,0,0,0,0,0,0,0,0,0,0,0,0,0,0,0,0,0,0,0,0,0,0,0,0,0,0,0,0,0,0,0,0,0,0,0,0,0,0,0,0,0,0,0,0,0,0,0,0,0,0,0,0,0,0,0],"id":1,"left_children":[1,3,5,7,9,11,13,15,17,19,21,23,25,27,29,31,33,35,37,39,41,43,45,47,49,51,53,55,57,59,61,63,65,67,69,71,73,75,77,79,81,83,85,87,89,91,93,95,97,99,101,103,105,107,109,111,113,115,117,119,121,123,125,127,129,131,133,135,137,139,141,143,145,147,149,151,153,155,157,159,161,163,165,167,169,171,173,175,177,179,181,183,185,187,189,191,193,195,197,199,201,203,205,207,209,211,213,215,217,219,221,223,225,227,229,231,233,235,237,239,241,243,245,247,249,251,253,255,257,259,261,263,265,267,269,271,273,275,277,279,281,283,285,287,289,291,293,295,297,299,301,303,305,307,309,311,313,315,317,319,321,323,325,327,329,331,333,335,337,-1,339,341,343,345,347,349,351,353,355,357,359,361,363,365,367,369,371,373,375,377,379,381,383,385,387,389,391,393,395,397,399,401,403,405,407,409,411,413,415,417,419,421,423,425,427,429,431,433,435,437,439,441,443,445,-1,447,449,451,453,455,457,459,461,463,465,467,469,471,473,475,477,479,481,483,485,487,489,491,493,495,-1,497,499,501,503,-1,-1,-1,-1,-1,-1,-1,-1,-1,-1,-1,-1,-1,-1,-1,-1,-1,-1,-1,-1,-1,-1,-1,-1,-1,-1,-1,-1,-1,-1,-1,-1,-1,-1,-1,-1,-1,-1,-1,-1,-1,-1,-1,-1,-1,-1,-1,-1,-1,-1,-1,-1,-1,-1,-1,-1,-1,-1,-1,-1,-1,-1,-1,-1,-1,-1,-1,-1,-1,-1,-1,-1,-1,-1,-1,-1,-1,-1,-1,-1,-1,-1,-1,-1,-1,-1,-1,-1,-1,-1,-1,-1,-1,-1,-1,-1,-1,-1,-1,-1,-1,-1,-1,-1,-1,-1,-1,-1,-1,-1,-1,-1,-1,-1,-1,-1,-1,-1,-1,-1,-1,-1,-1,-1,-1,-1,-1,-1,-1,-1,-1,-1,-1,-1,-1,-1,-1,-1,-1,-1,-1,-1,-1,-1,-1,-1,-1,-1,-1,-1,-1,-1,-1,-1,-1,-1,-1,-1,-1,-1,-1,-1,-1,-1,-1,-1,-1,-1,-1,-1,-1,-1,-1,-1,-1,-1,-1,-1,-1,-1,-1,-1,-1,-1,-1,-1,-1,-1,-1,-1,-1,-1,-1,-1,-1,-1,-1,-1,-1,-1,-1,-1,-1,-1,-1,-1,-1,-1,-1,-1,-1,-1,-1,-1,-1,-1,-1,-1,-1,-1,-1,-1,-1,-1,-1,-1,-1,-1,-1,-1,-1,-1,-1,-1,-1,-1,-1,-1,-1,-1,-1,-1,-1,-1,-1,-1,-1,-1,-1,-1],"loss_changes":[1.0055341E4,9.4079004E2,3.1284585E3,4.230088E2,2.6935046E2,1.02228986E3,1.1296143E3,2.2295312E2,2.2513599E2,7.381863E1,7.194023E1,5.3642456E2,2.3232758E2,3.3424466E2,5.203076E2,1.2218652E2,1.1811926E2,7.861792E1,7.9457275E1,4.356378E1,3.4047005E1,6.2102737E1,2.0070877E1,1.7287836E2,2.4260211E2,6.453258E1,1.1448279E2,5.731113E1,1.0373364E2,9.910034E1,7.100049E1,2.7135742E1,4.412793E1,2.8947327E1,2.041092E1,5.37782E1,1.5148518E1,2.6778015E1,5.2524876E1,1.6713043E1,1.6006508E1,6.487053E0,1.7933243E1,2.0509579E1,1.478949E1,1.0563789E1,1.3178085E1,3.001361E1,1.02659836E2,1.17500916E2,1.4538669E2,3.4651485E1,3.4001762E1,4.6261917E1,5.6105225E1,9.672791E0,4.9415134E1,5.4365295E1,1.1987488E1,3.6377563E1,7.037024E1,4.6368652E1,1.3472412E1,6.317871E0,1.7597168E1,5.4767456E0,1.9373169E1,2.5134277E0,2.2248718E1,1.7103527E1,4.4517527E0,1.8964798E1,2.1345825E1,4.6899443E0,6.644442E0,1.2627502E1,7.3721924E0,3.5640625E1,1.4307732E1,3.1707764E-1,1.438501E1,4.7558804E0,1.0313015E1,1.990036E0,1.9718561E0,1.062038E1,7.20706E0,1.8676275E1,6.487356E0,1.0261654E1,7.100376E0,9.797909E0,1.2134861E1,6.7391644E0,3.4383392E0,1.6793053E1,1.0757324E1,1.5971146E1,4.0668182E1,2.2765793E1,2.4657288E1,2.6549225E1,8.482213E1,5.785778E0,2.1992334E1,6.599662E0,1.9954185E1,1.8964817E1,1.9555557E1,2.013916E1,1.4335693E1,1.7255707E0,9.400872E0,2.6710018E1,1.4389875E1,3.010373E1,2.3337296E1,2.5690231E0,1.9330536E1,8.775597E0,2.7710327E1,2.2270187E1,3.9852905E1,1.0611938E1,3.096167E1,4.8225937E0,1.243335E1,4.1333008E-1,1.0614746E1,7.498535E0,4.9163513E0,1.1939697E0,7.1835785E0,1.5441864E1,1.8135965E1,5.4901123E-1,2.3055725E0,8.471161E0,1.3882069E1,5.4833603E0,8.101767E0,7.129283E0,4.969537E0,8.321121E0,1.2537371E1,1.1618164E1,1.3955139E1,2.815428E0,5.030303E0,2.869131E0,6.8340173E0,5.439866E0,8.265915E0,2.8956091E0,1.7229109E0,2.5180885E1,1.3899647E1,1.0700275E1,3.620121E0,1.3372836E0,5.967407E-1,5.359337E0,8.678812E0,6.8922997E0,1.4658017E0,1.4122751E0,2.6710892E0,1.6539154E0,9.075427E-1,0E0,1.7716043E0,5.798979E0,6.3361826E0,1.5541935E-1,6.7315063E0,5.445717E0,6.697338E0,2.5650864E0,1.0491719E1,5.9502716E0,2.763311E0,4.5561676E0,7.981949E-1,4.4121933E0,3.9997296E0,4.798378E0,1.8678598E0,8.399946E-1,5.185856E0,4.963455E0,3.170248E0,1.4040176E1,8.3642025E0,1.2776794E0,6.824646E0,1.0163895E1,1.1531924E1,1.3648263E1,1.9467932E1,9.592027E0,2.036311E1,4.13461E0,2.162027E1,8.376045E0,1.9262001E1,1.4485161E1,4.0640877E1,9.1071033E-1,5.326354E0,8.515964E0,9.3892975E0,6.42072E0,3.3769078E0,1.7461746E1,6.7376657E0,1.1774826E0,1.1017628E1,5.9964867E0,1.3877304E1,1.0850624E1,1.0835754E1,9.421997E0,6.3932953E0,1.128006E-1,0E0,1.0762966E1,1.3643479E0,2.1345156E1,1.2267258E1,3.8374748E0,6.9193535E0,1.7078003E1,6.385025E0,9.309029E0,9.707409E0,8.151253E0,4.463975E0,9.314606E0,4.3541164E0,5.98011E-2,7.40617E0,1.4385834E1,9.689087E0,4.631042E0,2.1753407E1,3.4203064E1,1.4948975E1,1.1881317E1,1.9003906E0,1.543396E1,0E0,1.0547091E0,2.6849031E0,1.4544067E1,1.0224365E1,0E0,0E0,0E0,0E0,0E0,0E0,0E0,0E0,0E0,0E0,0E0,0E0,0E0,0E0,0E0,0E0,0E0,0E0,0E0,0E0,0E0,0E0,0E0,0E0,0E0,0E0,0E0,0E0,0E0,0E0,0E0,0E0,0E0,0E0,0E0,0E0,0E0,0E0,0E0,0E0,0E0,0E0,0E0,0E0,0E0,0E0,0E0,0E0,0E0,0E0,0E0,0E0,0E0,0E0,0E0,0E0,0E0,0E0,0E0,0E0,0E0,0E0,0E0,0E0,0E0,0E0,0E0,0E0,0E0,0E0,0E0,0E0,0E0,0E0,0E0,0E0,0E0,0E0,0E0,0E0,0E0,0E0,0E0,0E0,0E0,0E0,0E0,0E0,0E0,0E0,0E0,0E0,0E0,0E0,0E0,0E0,0E0,0E0,0E0,0E0,0E0,0E0,0E0,0E0,0E0,0E0,0E0,0E0,0E0,0E0,0E0,0E0,0E0,0E0,0E0,0E0,0E0,0E0,0E0,0E0,0E0,0E0,0E0,0E0,0E0,0E0,0E0,0E0,0E0,0E0,0E0,0E0,0E0,0E0,0E0,0E0,0E0,0E0,0E0,0E0,0E0,0E0,0E0,0E0,0E0,0E0,0E0,0E0,0E0,0E0,0E0,0E0,0E0,0E0,0E0,0E0,0E0,0E0,0E0,0E0,0E0,0E0,0E0,0E0,0E0,0E0,0E0,0E0,0E0,0E0,0E0,0E0,0E0,0E0,0E0,0E0,0E0,0E0,0E0,0E0,0E0,0E0,0E0,0E0,0E0,0E0,0E0,0E0,0E0,0E0,0E0,0E0,0E0,0E0,0E0,0E0,0E0,0E0,0E0,0E0,0E0,0E0,0E0,0E0,0E0,0E0,0E0,0E0,0E0,0E0,0E0,0E0,0E0,0E0,0E0,0E0,0E0,0E0,0E0,0E0,0E0,0E0,0E0,0E0,0E0,0E0,0E0,0E0,0E0,0E0,0E0,0E0,0E0,0E0,0E0,0E0,0E0,0E0,0E0,0E0,0E0,0E0,0E0,0E0,0E0,0E0,0E0,0E0,0E0,0E0],"parents":[2147483647,0,0,1,1,2,2,3,3,4,4,5,5,6,6,7,7,8,8,9,9,10,10,11,11,12,12,13,13,14,14,15,15,16,16,17,17,18,18,19,19,20,20,21,21,22,22,23,23,24,24,25,25,26,26,27,27,28,28,29,29,30,30,31,31,32,32,33,33,34,34,35,35,36,36,37,37,38,38,39,39,40,40,41,41,42,42,43,43,44,44,45,45,46,46,47,47,48,48,49,49,50,50,51,51,52,52,53,53,54,54,55,55,56,56,57,57,58,58,59,59,60,60,61,61,62,62,63,63,64,64,65,65,66,66,67,67,68,68,69,69,70,70,71,71,72,72,73,73,74,74,75,75,76,76,77,77,78,78,79,79,80,80,81,81,82,82,83,83,84,84,85,85,86,86,87,87,88,88,89,89,90,90,91,91,92,92,93,93,94,94,95,95,96,96,97,97,98,98,99,99,100,100,101,101,102,102,103,103,104,104,105,105,106,106,107,107,108,108,109,109,110,110,111,111,112,112,113,113,114,114,115,115,116,116,117,117,118,118,119,119,120,120,121,121,122,122,123,123,124,124,125,125,126,126,127,127,128,128,129,129,130,130,131,131,132,132,133,133,134,134,135,135,136,136,137,137,138,138,139,139,140,140,141,141,142,142,143,143,144,144,145,145,146,146,147,147,148,148,149,149,150,150,151,151,152,152,153,153,154,154,155,155,156,156,157,157,158,158,159,159,160,160,161,161,162,162,163,163,164,164,165,165,166,166,167,167,168,168,170,170,171,171,172,172,173,173,174,174,175,175,176,176,177,177,178,178,179,179,180,180,181,181,182,182,183,183,184,184,185,185,186,186,187,187,188,188,189,189,190,190,191,191,192,192,193,193,194,194,195,195,196,196,197,197,198,198,199,199,200,200,201,201,202,202,203,203,204,204,205,205,206,206,207,207,208,208,209,209,210,210,211,211,212,212,213,213,214,214,215,215,216,216,217,217,218,218,219,219,220,220,221,221,222,222,223,223,225,225,226,226,227,227,228,228,229,229,230,230,231,231,232,232,233,233,234,234,235,235,236,236,237,237,238,238,239,239,240,240,241,241,242,242,243,243,244,244,245,245,246,246,247,247,248,248,249,249,251,251,252,252,253,253,254,254],"right_children":[2,4,6,8,10,12,14,16,18,20,22,24,26,28,30,32,34,36,38,40,42,44,46,48,50,52,54,56,58,60,62,64,66,68,70,72,74,76,78,80,82,84,86,88,90,92,94,96,98,100,102,104,106,108,110,112,114,116,118,120,122,124,126,128,130,132,134,136,138,140,142,144,146,148,150,152,154,156,158,160,162,164,166,168,170,172,174,176,178,180,182,184,186,188,190,192,194,196,198,200,202,204,206,208,210,212,214,216,218,220,222,224,226,228,230,232,234,236,238,240,242,244,246,248,250,252,254,256,258,260,262,264,266,268,270,272,274,276,278,280,282,284,286,288,290,292,294,296,298,300,302,304,306,308,310,312,314,316,318,320,322,324,326,328,330,332,334,336,338,-1,340,342,344,346,348,350,352,354,356,358,360,362,364,366,368,370,372,374,376,378,380,382,384,386,388,390,392,394,396,398,400,402,404,406,408,410,412,414,416,418,420,422,424,426,428,430,432,434,436,438,440,442,444,446,-1,448,450,452,454,456,458,460,462,464,466,468,470,472,474,476,478,480,482,484,486,488,490,492,494,496,-1,498,500,502,504,-1,-1,-1,-1,-1,-1,-1,-1,-1,-1,-1,-1,-1,-1,-1,-1,-1,-1,-1,-1,-1,-1,-1,-1,-1,-1,-1,-1,-1,-1,-1,-1,-1,-1,-1,-1,-1,-1,-1,-1,-1,-1,-1,-1,-1,-1,-1,-1,-1,-1,-1,-1,-1,-1,-1,-1,-1,-1,-1,-1,-1,-1,-1,-1,-1,-1,-1,-1,-1,-1,-1,-1,-1,-1,-1,-1,-1,-1,-1,-1,-1,-1,-1,-1,-1,-1,-1,-1,-1,-1,-1,-1,-1,-1,-1,-1,-1,-1,-1,-1,-1,-1,-1,-1,-1,-1,-1,-1,-1,-1,-1,-1,-1,-1,-1,-1,-1,-1,-1,-1,-1,-1,-1,-1,-1,-1,-1,-1,-1,-1,-1,-1,-1,-1,-1,-1,-1,-1,-1,-1,-1,-1,-1,-1,-1,-1,-1,-1,-1,-1,-1,-1,-1,-1,-1,-1,-1,-1,-1,-1,-1,-1,-1,-1,-1,-1,-1,-1,-1,-1,-1,-1,-1,-1,-1,-1,-1,-1,-1,-1,-1,-1,-1,-1,-1,-1,-1,-1,-1,-1,-1,-1,-1,-1,-1,-1,-1,-1,-1,-1,-1,-1,-1,-1,-1,-1,-1,-1,-1,-1,-1,-1,-1,-1,-1,-1,-1,-1,-1,-1,-1,-1,-1,-1,-1,-1,-1,-1,-1,-1,-1,-1,-1,-1,-1,-1,-1,-1,-1,-1,-1,-1,-1,-1,-1,-1,-1,-1,-1,-1],"split_conditions":[1.153586E0,2.2226367E0,5.4643226E-1,1.1651582E0,5.4643226E-1,2.2226367E0,1.1651582E0,6.424694E-1,2.4383318E-1,1.1651582E0,1.1651582E0,1.1651582E0,1.1651582E0,-1.1876594E-2,2.2226367E0,5.4643226E-1,9.253364E-2,3.1030114E0,-3.390496E-1,3.1030114E0,-5.126645E-1,6.424694E-1,3.8107485E-1,3.152964E-1,-2.5939984E-2,3.1030114E0,-2.1006544E-1,-1.3205687E0,3.1030114E0,-2.5939984E-2,1.7568285E0,-5.8765896E-2,-9.933956E-1,-6.6396403E-1,3.1030114E0,-2.5939984E-2,-2.1006544E-1,1.2352264E0,1.0003308E0,-6.6396403E-1,-3.6136496E-1,5.4677755E-1,3.1030114E0,-2.5939984E-2,3.1030114E0,2.0594277E0,1.0003308E0,4.5689633E-1,-3.6136496E-1,-2.1006544E-1,-2.1006544E-1,-3.6136496E-1,-3.6136496E-1,3.1030114E0,3.1030114E0,2.5133262E0,4.5689633E-1,9.397326E-1,8.490313E-1,-6.6622263E-1,-3.390496E-1,-1.4167133E-1,-9.933956E-1,-6.6622263E-1,-1.1876594E-2,-2.6929848E-2,1.2352264E0,9.696424E-1,1.2968154E0,5.4643226E-1,-3.7115428E-1,-3.6136496E-1,3.152964E-1,7.588142E-1,9.6288127E-1,-2.0807455E0,3.3128865E0,3.1030114E0,3.1030114E0,-1.5717613E0,3.152964E-1,1.1198915E0,3.152964E-1,-8.1526357E-1,1.9747442E-1,-5.1660948E-2,-2.0807455E0,-1.1876594E-2,3.152964E-1,-2.5939984E-2,1.3029299E0,9.397326E-1,3.4211235E0,-1.9572852E0,9.6288127E-1,1.6941923E0,-6.6622263E-1,3.1030114E0,-2.5939984E-2,-6.6396403E-1,-9.933956E-1,6.424694E-1,-1.1876594E-2,-1.1178627E0,-1.1876594E-2,-2.0807455E0,1.6239884E0,-2.0807455E0,-6.6396403E-1,-2.564128E-1,1.2968154E0,4.875181E0,5.673431E-1,1.605529E0,1.0003308E0,1.7568285E0,2.2226367E0,6.977318E-1,9.6288127E-1,1.9747442E-1,1.1516304E0,-9.933956E-1,1.4542295E0,1.0003308E0,4.875181E0,2.5133262E0,-3.7115428E-1,8.781163E-2,-2.5939984E-2,1.9236752E0,4.875181E0,5.673431E-1,1.4542295E0,3.152964E-1,3.1030114E0,2.2735928E-1,-9.916126E-1,-5.1660948E-2,-2.5939984E-2,-1.0662031E0,4.5689633E-1,-2.5939984E-2,3.8107485E-1,-2.0807455E0,6.61519E-1,-2.1006544E-1,-3.6136496E-1,4.82023E-1,-9.916126E-1,-3.7115428E-1,1.7315549E0,1.0003308E0,1.3029299E0,3.4871788E0,-9.933956E-1,9.397326E-1,8.490313E-1,-9.916126E-1,6.424694E-1,-1.7230608E0,-8.1526357E-1,-1.4167133E-1,-1.4744489E0,-1.4744489E0,-9.665631E-1,-3.390496E-1,3.9513272E-1,3.1030114E0,6.424694E-1,-4.6524715E-2,-5.1660948E-2,1.9236752E0,-9.916126E-1,-2.9416513E-1,-5.1660948E-2,1.605529E0,5.673431E-1,7.588142E-1,1.2352264E0,9.696424E-1,9.397326E-1,1.0003308E0,4.82023E-1,-2.0807455E0,-2.9416513E-1,3.3128865E0,4.82023E-1,7.588142E-1,-5.087763E-1,-2.6929848E-2,3.3128865E0,-3.390496E-1,4.875181E0,3.1030114E0,-3.6136496E-1,-6.6396403E-1,-5.087763E-1,3.3128865E0,3.1030114E0,-3.7115428E-1,5.673431E-1,-2.6929848E-2,-2.564128E-1,-6.6622263E-1,5.4677755E-1,4.3203604E-1,1.3499678E0,1.7315549E0,-3.390496E-1,-5.087763E-1,1.9747442E-1,-2.4069132E-2,3.152964E-1,3.152964E-1,-2.1006544E-1,1.0563148E0,-2.5939984E-2,3.3128865E0,1.2968154E0,-1.5911713E-1,-9.933956E-1,3.152964E-1,-5.087763E-1,-1.9572852E0,2.2447167E-3,8.781163E-2,-1.5911713E-1,1.2352264E0,-5.1660948E-2,2.2226367E0,-2.564128E-1,1.9747442E-1,9.696424E-1,8.490313E-1,2.4973826E0,3.3128865E0,-2.564128E-1,2.2735928E-1,3.3128865E0,-9.933956E-1,2.2107272E0,-2.0807455E0,4.1776214E0,-1.3205687E0,8.490313E-1,4.3203604E-1,7.203612E0,-2.5939984E-2,1.2968154E0,1.9747442E-1,1.2980789E-1,2.4067948E0,3.1729457E-1,1.6239884E0,1.9747442E-1,-5.8675777E-2,-5.418331E-2,-4.762157E-2,-5.602281E-2,-5.259964E-2,-2.364584E-2,-4.065964E-2,8.61173E-3,-4.479658E-2,-5.330782E-2,-4.7689956E-2,-1.6001774E-2,-3.5854347E-2,-1.6068017E-2,-7.4724853E-3,1.11268E-1,-1.9661536E-2,-5.2707966E-2,-3.3755887E-2,-4.6551805E-2,-2.8320346E-2,-4.31028E-2,-1.0510387E-2,-3.2224953E-2,1.0361797E-2,-2.428473E-2,7.846933E-3,-1.4012963E-2,4.588215E-2,-9.114231E-3,6.368043E-2,-2.0064944E-2,1.1721579E-2,-3.519632E-2,-2.0262087E-2,1.1808306E-2,-5.1190775E-2,-4.0617853E-2,-4.27064E-2,-3.0953472E-2,-1.7817264E-2,1.10955825E-2,1.4761685E-2,-2.6631912E-2,1.773048E-2,4.8744448E-2,-9.123741E-3,8.352856E-2,-2.6473573E-3,8.362451E-2,-3.7411466E-2,-2.0085772E-2,-7.345445E-3,3.6305867E-2,2.2152334E-2,8.510009E-2,-4.061558E-3,-2.6357666E-2,1.9133098E-2,9.565028E-2,4.717036E-2,1.16436295E-2,3.8079303E-2,9.841975E-2,-4.2832814E-2,-7.6115886E-3,-4.8402883E-2,-3.7861273E-2,-4.8934236E-2,-3.0155335E-2,6.401899E-3,-2.1560267E-2,7.893481E-2,-8.351687E-3,-4.1559916E-2,-1.5668204E-2,-3.734684E-2,1.8680816E-3,3.5898432E-2,8.022759E-2,-4.922001E-2,-1.1593568E-2,-3.390601E-2,-1.5447161E-2,-1.2131201E-3,-1.6457584E-2,6.923325E-3,3.2983944E-2,1.4285216E-2,-1.1055393E-2,3.6217254E-2,1.2949526E-1,1.0236677E-2,4.6896335E-2,-1.90887E-2,8.4224455E-3,5.4919094E-2,1.2271478E-2,-4.3567404E-2,-2.2347976E-2,-2.2332424E-2,5.4484148E-2,2.1027911E-2,6.2969476E-2,2.2794516E-4,3.0901745E-2,6.984482E-2,8.749257E-5,3.5715993E-2,1.3327442E-1,9.175916E-2,3.256453E-2,1.2233646E-2,-3.3708148E-2,8.925807E-2,1.1098413E-2,-2.922864E-2,2.0620236E-2,1.3040829E-3,-3.740666E-2,6.788083E-2,1.9918611E-2,4.296036E-2,9.462684E-2,6.0652938E-2,-2.2305816E-3,-4.1674107E-2,-2.15349E-2,-2.0291742E-3,7.849374E-2,-5.569935E-2,-1.06270425E-2,-5.0035954E-2,-3.6929175E-2,-3.6054336E-2,-2.3264026E-2,2.3295706E-2,-1.8790578E-2,8.137728E-3,5.3151604E-2,-1.3407417E-2,1.7263522E-2,-1.1730633E-2,7.762269E-3,3.4610756E-2,8.197448E-3,-2.553833E-2,2.10333E-2,3.2448247E-2,5.2016854E-2,-4.613481E-2,-2.4447097E-2,-1.3939017E-2,1.4993264E-2,-2.2212312E-2,1.813585E-2,1.0408314E-2,5.2879352E-2,-3.907048E-2,-1.303411E-2,-4.060598E-2,-8.395639E-3,1.2158282E-3,-4.0765278E-2,-5.0269585E-2,1.9129436E-2,1.2966974E-1,-9.785494E-3,-1.9938733E-2,1.1606891E-2,2.7057687E-2,9.516346E-2,6.543508E-2,4.58896E-3,8.022895E-2,3.8267758E-2,2.3177588E-2,4.0924777E-3,3.663416E-2,-1.1908166E-4,7.915514E-2,4.0504817E-2,4.1413594E-2,6.5285186E-3,-1.592226E-2,5.8882672E-2,6.753758E-2,9.8752074E-2,7.7205524E-2,4.5991726E-2,-2.9901324E-2,-5.171836E-2,-2.5009278E-2,1.1696469E-1,-7.6207356E-3,-4.1887354E-2,-8.681583E-3,3.576127E-2,5.2167602E-2,1.8203666E-2,-3.253869E-2,2.4676726E-3,-1.327269E-2,8.514866E-3,-3.7278134E-2,3.5284262E-2,5.2863713E-2,7.9069875E-2,-9.390133E-3,1.326143E-2,3.0747706E-2,8.803071E-2,7.901292E-2,-8.172379E-3,1.1806201E-2,5.887692E-2,-1.4991435E-2,1.0816914E-1,5.8135506E-2,-6.358815E-3,-4.1744526E-2,-1.1051651E-2,3.0704409E-2,7.1102925E-2,1.2334267E-1,6.4135015E-2,9.453522E-2,2.0161295E-2,-2.5700355E-2,3.8562864E-3,-5.1718694E-3,4.161359E-2,4.1817695E-2,7.887964E-2,7.3187955E-2,-1.5676238E-2,7.5006455E-2,4.0281124E-2,8.73835E-2,6.3273996E-2,5.594578E-3,9.519141E-2,1.4893589E-2,-3.3023242E-2,5.522002E-3,9.0502E-2,1.02167465E-1,-9.192168E-3,2.5489882E-2,1.271054E-1],"split_indices":[0,16,3,1,3,16,1,18,3,1,1,1,1,18,16,3,3,6,18,6,3,18,14,18,20,6,3,18,6,20,3,3,18,3,6,20,3,15,3,3,3,15,6,20,6,3,3,20,3,3,3,3,3,6,6,3,20,20,3,18,18,15,18,18,18,15,15,18,18,3,15,3,18,8,19,19,12,6,6,3,18,4,18,3,2,19,19,18,18,20,3,20,3,20,19,15,18,6,20,3,18,18,18,3,18,19,18,19,3,15,18,5,7,3,3,3,16,3,19,2,3,18,3,3,5,3,15,15,20,15,5,7,3,18,6,11,20,19,20,19,20,20,14,19,15,3,3,9,20,15,14,3,3,14,18,20,3,20,18,3,3,15,20,20,3,18,3,6,18,0,19,15,20,14,19,3,7,8,15,18,20,3,9,19,14,12,9,8,20,15,12,18,5,6,3,3,20,12,6,15,7,15,15,18,15,15,15,14,18,20,2,14,18,18,3,14,20,12,18,14,18,18,20,20,0,15,14,15,19,16,15,2,18,3,15,12,15,11,12,18,3,19,3,18,3,15,3,20,18,2,0,14,15,18,2,0,0,0,0,0,0,0,0,0,0,0,0,0,0,0,0,0,0,0,0,0,0,0,0,0,0,0,0,0,0,0,0,0,0,0,0,0,0,0,0,0,0,0,0,0,0,0,0,0,0,0,0,0,0,0,0,0,0,0,0,0,0,0,0,0,0,0,0,0,0,0,0,0,0,0,0,0,0,0,0,0,0,0,0,0,0,0,0,0,0,0,0,0,0,0,0,0,0,0,0,0,0,0,0,0,0,0,0,0,0,0,0,0,0,0,0,0,0,0,0,0,0,0,0,0,0,0,0,0,0,0,0,0,0,0,0,0,0,0,0,0,0,0,0,0,0,0,0,0,0,0,0,0,0,0,0,0,0,0,0,0,0,0,0,0,0,0,0,0,0,0,0,0,0,0,0,0,0,0,0,0,0,0,0,0,0,0,0,0,0,0,0,0,0,0,0,0,0,0,0,0,0,0,0,0,0,0,0,0,0,0,0,0,0,0,0,0,0,0,0,0,0,0,0,0,0,0,0,0,0,0,0,0,0,0,0,0,0,0,0,0,0,0,0,0,0,0,0,0,0],"split_type":[0,0,0,0,0,0,0,0,0,0,0,0,0,0,0,0,0,0,0,0,0,0,0,0,0,0,0,0,0,0,0,0,0,0,0,0,0,0,0,0,0,0,0,0,0,0,0,0,0,0,0,0,0,0,0,0,0,0,0,0,0,0,0,0,0,0,0,0,0,0,0,0,0,0,0,0,0,0,0,0,0,0,0,0,0,0,0,0,0,0,0,0,0,0,0,0,0,0,0,0,0,0,0,0,0,0,0,0,0,0,0,0,0,0,0,0,0,0,0,0,0,0,0,0,0,0,0,0,0,0,0,0,0,0,0,0,0,0,0,0,0,0,0,0,0,0,0,0,0,0,0,0,0,0,0,0,0,0,0,0,0,0,0,0,0,0,0,0,0,0,0,0,0,0,0,0,0,0,0,0,0,0,0,0,0,0,0,0,0,0,0,0,0,0,0,0,0,0,0,0,0,0,0,0,0,0,0,0,0,0,0,0,0,0,0,0,0,0,0,0,0,0,0,0,0,0,0,0,0,0,0,0,0,0,0,0,0,0,0,0,0,0,0,0,0,0,0,0,0,0,0,0,0,0,0,0,0,0,0,0,0,0,0,0,0,0,0,0,0,0,0,0,0,0,0,0,0,0,0,0,0,0,0,0,0,0,0,0,0,0,0,0,0,0,0,0,0,0,0,0,0,0,0,0,0,0,0,0,0,0,0,0,0,0,0,0,0,0,0,0,0,0,0,0,0,0,0,0,0,0,0,0,0,0,0,0,0,0,0,0,0,0,0,0,0,0,0,0,0,0,0,0,0,0,0,0,0,0,0,0,0,0,0,0,0,0,0,0,0,0,0,0,0,0,0,0,0,0,0,0,0,0,0,0,0,0,0,0,0,0,0,0,0,0,0,0,0,0,0,0,0,0,0,0,0,0,0,0,0,0,0,0,0,0,0,0,0,0,0,0,0,0,0,0,0,0,0,0,0,0,0,0,0,0,0,0,0,0,0,0,0,0,0,0,0,0,0,0,0,0,0,0,0,0,0,0,0,0,0,0,0,0,0,0,0,0,0,0,0,0,0,0,0,0,0,0,0,0,0,0,0,0,0,0,0,0,0,0,0,0,0,0,0,0,0,0,0,0,0,0,0,0,0,0,0],"sum_hessian":[2.9244562E4,1.6448596E4,1.2795966E4,1.4856244E4,1.5923519E3,8.448935E3,4.3470312E3,1.0611212E4,4.2450327E3,1.0816085E3,5.1074347E2,6.6172534E3,1.8316818E3,1.6821985E3,2.6648325E3,8.687236E3,1.9239756E3,3.0579895E3,1.1870432E3,6.449174E2,4.3669107E2,2.840684E2,2.266751E2,2.8130894E3,3.8041638E3,6.105218E2,1.22116E3,6.247633E2,1.0574352E3,1.5559288E3,1.1089038E3,7.261408E3,1.425828E3,1.5008385E3,4.2313696E2,2.8837283E3,1.7426134E2,4.1796512E2,7.690781E2,5.7124036E2,7.3677055E1,1.3937973E2,2.9731134E2,1.9374493E2,9.032345E1,1.3924916E2,8.7425934E1,1.0913066E3,1.7217827E3,1.2795052E3,2.5246587E3,4.8319785E2,1.2732393E2,5.223036E2,6.988564E2,9.482053E1,5.2994275E2,9.207492E2,1.3668602E2,5.300786E2,1.0258502E3,7.516065E2,3.5729724E2,5.568956E3,1.692452E3,5.588846E2,8.6694336E2,6.4035046E2,8.604881E2,3.8880734E2,3.4329643E1,6.307158E2,2.2530125E3,1.100812E2,6.4180145E1,3.9407846E2,2.388665E1,5.691427E2,1.9993542E2,1.7840016E2,3.928402E2,3.6947174E1,3.6729877E1,5.912842E1,8.0251305E1,2.4442917E2,5.2882168E1,1.08705185E2,8.503975E1,7.222415E1,1.8099295E1,1.1265064E2,2.6598524E1,2.9034407E1,5.8391525E1,3.8672363E2,7.04583E2,7.2861334E2,9.931693E2,6.2951965E2,6.4998566E2,1.1056677E3,1.418991E3,1.836674E2,2.9953046E2,5.1519802E1,7.580413E1,3.4250464E2,1.7979897E2,4.6448166E2,2.3437474E2,7.881759E1,1.6002949E1,2.6158234E2,2.683604E2,6.881904E2,2.3255875E2,4.4999905E1,9.168611E1,6.563702E1,4.6444162E2,1.7783228E2,8.4801794E2,2.2519446E2,5.2641205E2,7.4095554E0,3.4988766E2,2.6420457E3,2.9269106E3,1.2537722E3,4.3867978E2,4.7841382E2,8.047073E1,8.270332E2,3.9910206E1,2.444865E2,3.9586398E2,5.607513E2,2.997368E2,2.1656691E2,1.7224043E2,2.2953434E1,1.1376207E1,3.469553E2,2.8376056E2,1.1959791E3,1.0570332E3,3.3569313E1,7.651189E1,3.4942257E1,2.9237888E1,6.358083E0,3.8772037E2,1.7751495E1,6.135154E0,5.17701E2,5.144172E1,1.8686815E2,1.3067275E1,1.2114803E1,1.6628537E2,1.9015375E2,2.0268648E2,1.1318209E1,2.5628967E1,8.010242E0,2.8719635E1,2.7187904E1,3.1940517E1,2.9833243E0,7.726798E1,9.763825E1,1.4679091E2,2.292242E0,5.0589928E1,7.0714645E1,3.799054E1,6.649258E1,1.854717E1,4.1106213E1,3.1117937E1,1.1267309E1,6.831986E0,9.383691E1,1.8813732E1,2.0948277E1,5.650248E0,4.5622334E0,2.4472174E1,4.7922356E1,1.0469169E1,3.5525818E2,3.1465458E1,2.0600592E2,4.985771E2,6.534316E2,7.518176E1,3.4660852E2,6.465608E2,2.6044193E2,3.690777E2,2.2364998E1,6.2762067E2,4.321511E2,6.735166E2,2.678175E2,1.1511735E3,3.0707552E1,1.5295985E2,4.726482E1,2.5226562E2,2.273663E0,4.924614E1,5.3603733E1,2.2200397E1,1.6804451E1,3.257002E2,7.396185E1,1.0583711E2,1.4704967E2,3.17432E2,1.5513826E2,7.923647E1,7.732588E1,1.4917073E0,3.8157203E0,1.2187228E1,1.5211745E2,1.0946488E2,1.0557701E2,1.627834E2,5.223003E2,1.6589018E2,1.8888744E2,4.3671314E1,2.3685781E1,2.1314125E1,6.525055E1,2.6435562E1,3.1276324E0,6.2509384E1,2.642863E2,2.0015533E2,5.203504E1,1.2579724E2,6.319935E2,2.160244E2,1.08563416E2,1.16631035E2,4.4593256E2,8.047952E1,2.758474E0,4.6510816E0,6.7285614E1,2.8260205E2,2.4014412E3,2.4060445E2,5.043877E2,2.422523E3,1.2286388E3,2.513341E1,4.338797E2,4.800081E0,9.697887E1,3.8143497E2,5.10777E1,2.9393036E1,7.097632E2,1.1727001E2,3.740001E1,2.5101979E0,2.820944E0,2.4166554E2,5.4115246E1,3.4174875E2,1.3680876E2,4.2394254E2,1.3473729E2,1.6499951E2,1.1557473E1,2.0500943E2,1.00401184E2,7.183924E1,8.775566E0,1.4177868E1,9.743175E0,1.6330329E0,9.273679E0,3.376816E2,2.4973193E2,3.4028618E1,7.514972E2,4.44482E2,5.7544135E2,4.8159183E2,1.2685047E1,2.0884268E1,7.562544E0,6.894934E1,2.3300732E1,1.1641527E1,2.8100473E1,1.1374149E0,4.2045975E0,2.1534858E0,2.9241437E2,9.5306E1,1.3599457E1,4.1520395E0,2.663772E0,3.4713817E0,2.9781323E2,2.1988773E2,4.544184E1,5.9998794E0,2.3613039E1,1.6325511E2,7.505375E0,5.5618997E0,7.392813E0,4.72199E0,1.23677574E2,4.260779E1,6.0222794E1,1.2993095E2,3.2652275E1,1.700342E2,1.9168328E0,9.401376E0,9.291155E0,1.6337812E1,3.418221E0,4.592022E0,2.4402514E1,4.3171206E0,2.3030506E1,4.157398E0,1.3497826E1,1.8442692E1,3.3460617E1,4.3807365E1,6.672103E1,3.0917223E1,3.0306353E1,1.1648456E2,1.1466513E0,1.1455908E0,2.5104673E1,2.5485252E1,3.8479134E1,3.223551E1,2.0793343E1,1.7197197E1,2.6069061E1,4.0423515E1,1.304172E1,5.5054507E0,1.4106641E1,2.6999573E1,2.0738571E1,1.0379365E1,8.114224E0,3.153085E0,1.1554424E0,5.6765437E0,2.6353188E0,9.120159E1,1.2495123E1,6.31861E0,1.842128E1,2.5269964E0,2.3237257E0,3.3265224E0,3.0951607E0,1.4670726E0,1.3238561E1,1.1233614E1,8.075406E0,3.984695E1,7.977917E0,2.4912522E0,1.6555785E2,1.8970033E2,2.8840775E1,2.6246836E0,2.0388934E2,2.1165726E0,1.5992496E2,3.3865213E2,3.6984955E2,2.8358203E2,2.237916E1,5.280261E1,3.2980618E2,1.680234E1,5.907192E2,5.584161E1,1.556349E2,1.0480703E2,9.955798E1,2.695197E2,1.6694305E1,5.670691E0,4.0135147E2,2.262692E2,5.1406628E1,3.8074448E2,6.108354E2,6.268123E1,2.4409712E2,2.3720375E1,1.09269E3,5.8483467E1,2.535451E1,5.3530416E0,1.3274737E1,1.3968512E2,2.4935785E1,2.2329037E1,4.0393662E0,2.4822626E2,1.1437999E0,1.1298631E0,9.774184E0,3.9471954E1,1.3515518E1,4.0088215E1,5.31634E0,1.6884056E1,1.1284164E1,5.5202866E0,2.0564424E2,1.20055954E2,6.042438E1,1.3537471E1,6.3330826E1,4.2506283E1,1.1917038E2,2.7879295E1,4.5313244E0,3.1290067E2,4.4858685E1,1.1027957E2,3.853194E1,4.0704536E1,5.4214587E0,7.190442E1,1.9707919E0,1.8449285E0,5.5574775E0,6.6297507E0,1.18179016E2,3.3938435E1,4.8913586E1,6.05513E1,9.721749E1,8.359521E0,1.09154305E2,5.3629097E1,7.4669075E0,5.148334E2,1.3094046E2,3.4949715E1,7.337266E1,1.1551478E2,3.43462E1,9.325117E0,2.0831535E1,2.8542452E0,9.152588E0,1.2161536E1,1.3387606E0,6.391179E1,2.3716745E1,2.7188177E0,1.9618722E0,1.1657603E0,4.6758778E1,1.5750606E1,1.1086482E1,2.531998E2,1.9504417E2,5.111161E0,2.3131773E1,2.8903269E1,3.359752E1,9.219972E1,5.61029E2,7.096457E1,2.1151224E2,4.512169E0,5.788216E1,5.0681255E1,9.2324615E1,2.4306417E1,4.9897256E0,4.4094284E2,1.7111578E0,1.0473162E0,1.3607814E0,3.2903E0,6.438118E1,2.904432E0,3.0680525E0,2.79534E2],"tree_param":{"num_deleted":"0","num_feature":"21","num_nodes":"505","size_leaf_vector":"1"}},{"base_weights":[-2.5903267E-1,-7.667766E-1,3.7051263E-1,-8.457531E-1,-4.99977E-2,4.1194174E-2,9.9168444E-1,-9.5319694E-1,-5.8167154E-1,-4.7154015E-1,3.0194154E-1,-1.3314818E-1,6.5652466E-1,3.963987E-1,1.3592191E0,-1.0235173E0,-6.399543E-1,-7.227866E-1,-2.2335401E-1,-6.727432E-1,-1.5472396E-1,-8.466318E-3,6.004949E-1,-4.490474E-1,9.7510174E-2,4.452165E-1,1.1516639E0,-1.5340497E-1,7.140481E-1,1.0288371E0,1.8117558E0,-1.0773257E0,-7.5173986E-1,-7.528768E-1,-1.06324166E-1,-7.643827E-1,-6.341916E-2,-5.6835765E-1,-3.8617045E-2,-7.349772E-1,-1.5119475E-1,-4.1761693E-1,1.043228E-1,-3.604526E-1,4.74638E-1,2.8668678E-1,8.492607E-1,-7.6076245E-1,-2.5442412E-1,3.4146547E-1,-1.479147E-1,3.99042E-2,6.845209E-1,5.7658577E-1,1.3583891E0,-8.543842E-1,-2.9060092E-2,6.070607E-1,1.4000442E0,1.3727126E0,8.499873E-1,1.5799354E0,2.0230224E0,-1.1114997E0,-9.651941E-1,-9.6809787E-1,-6.151322E-1,-8.8910073E-1,-5.615987E-1,-1.7425834E-1,6.596458E-1,-4.934075E-1,-8.408925E-1,-2.0696679E-1,4.5600832E-1,-6.231475E-1,3.0992043E-1,1.7108737E-1,-3.4604952E-1,-8.8321805E-1,-6.109083E-1,2.4079625E-1,-5.4361415E-1,-4.8068312E-1,-1.5272659E-1,-8.502539E-2,9.223102E-1,-5.150462E-1,1.4395419E-1,6.618985E-3,8.071026E-1,1.1463238E-1,9.7931635E-1,1.2053211E0,5.8294946E-1,-9.375879E-1,-6.1300755E-1,-5.810048E-1,-9.4809845E-2,6.416747E-2,5.949294E-1,-4.0983465E-1,4.6420787E-2,-2.2968051E-1,2.868321E-1,3.5773408E-1,9.1236436E-1,3.52212E-1,8.831929E-1,1.5283982E0,7.6052266E-1,5.3067703E-2,-9.0898037E-1,-1.5585071E-1,5.874368E-1,8.183226E-1,3.108023E-1,1.1181108E0,1.6865917E0,6.37924E-1,1.474148E0,2.5591338E-1,9.729712E-1,1.9235173E0,1.3794945E0,1.6069376E0,2.124585E0,-1.117153E0,-8.3777606E-1,-1.0299284E0,-7.800864E-1,-1.0066059E0,-7.204566E-1,-6.3790584E-1,4.8223388E-1,-6.6797847E-1,-9.57369E-1,-2.8675127E-1,-6.580175E-1,-1.0662258E0,-1.3444059E-1,9.633998E-1,1.5946575E-1,-6.4766014E-1,-3.079619E-1,-9.320566E-1,-7.3792624E-1,-2.9813373E-1,1.19848E-1,-2.87329E-1,6.706707E-1,6.502861E-1,-6.480698E-1,7.153837E-1,-3.4881344E-1,8.499589E-2,9.541497E-1,-4.74655E-1,5.3020317E-2,-5.816718E-1,-9.006955E-1,-7.3245364E-1,-3.234964E-1,1.0980904E0,-1.6616228E-1,-2.362544E-1,-7.799779E-1,-2.604657E-1,-6.018367E-1,-6.637563E-1,2.2261605E-2,2.8045747E-1,-2.198364E-1,1.3257562E0,5.2173203E-1,-2.97574E-1,-6.6857725E-1,-1.4048261E-2,7.123103E-1,-3.9464417E-1,4.6164086E-1,5.98008E-1,1.3374972E0,7.047793E-1,4.100678E-3,2.5948736E-1,1.6751256E0,8.309336E-1,1.6569684E0,7.992792E-1,3.3867934E-1,-9.757276E-1,-3.7280324E-1,-3.715566E-1,-7.468081E-1,-7.011154E-1,-3.690854E-1,-1.6271202E-1,4.9827856E-1,1.0703729E-1,-6.922322E-1,5.080986E-1,1.1881557E0,-4.694111E-1,-5.7216138E-2,-4.1077852E-1,1.6465874E-1,-4.3565845E-1,-4.8883058E-2,-3.9658996E-1,4.2111588E-1,1.3304462E0,3.0102354E-1,9.547291E-1,-2.1599795E-1,8.40853E-1,1.6286126E-1,5.1873094E-1,1.1806043E0,1.0614214E0,1.6710609E0,4.673541E-1,1.1019689E0,-4.4799155E-1,6.745141E-2,-9.9084914E-1,-4.2252627E-1,-3.6063486E-1,2.2586098E-1,9.761847E-1,2.4175146E-1,-7.603862E-1,8.423202E-1,8.0022715E-2,6.13472E-1,7.520441E-1,1.3385198E0,-3.627027E-2,1.7437265E0,3.800272E-1,1.341282E0,1.378215E0,1.9980408E0,-3.394935E-1,4.8957717E-1,8.479327E-1,1.3273787E0,-1.4293393E-1,1.9609389E0,1.1323907E0,1.6857872E0,1.7350036E0,9.0232164E-1,1.8911953E-1,2.1400487E0,-5.732863E-2,-5.3619143E-2,-4.564714E-2,-2.0205138E-2,-5.2109968E-2,-2.2093521E-2,-3.993982E-2,-9.048301E-3,-4.3990765E-2,-5.2188117E-2,-4.5369443E-2,-1.4320548E-2,-3.9014727E-2,-2.4642536E-2,4.4916044E-3,9.491315E-2,-4.222348E-2,-2.5830215E-2,-5.0888836E-2,-4.0716887E-2,-3.8713213E-2,-5.197327E-3,-4.1753042E-2,-2.6774129E-2,-5.645981E-2,-2.0747183E-2,9.288722E-3,-1.2392293E-2,6.1594374E-2,-9.940344E-3,-2.680317E-2,1.8759092E-2,9.012595E-3,-3.3708718E-2,-2.0889513E-2,5.373192E-3,-5.0514527E-2,-3.981555E-2,-4.1686635E-2,-3.0350033E-2,9.457474E-3,-1.8058425E-2,2.1515073E-2,-1.2278482E-2,-4.8701923E-2,1.2155071E-2,5.1495995E-2,1.2505136E-2,5.356738E-2,-1.3586946E-2,-3.544876E-2,-1.971623E-2,-1.5286601E-3,6.2100835E-2,3.5822786E-2,-2.8237283E-2,-3.4635055E-3,2.3607073E-2,2.8823836E-2,7.930029E-2,-2.9576292E-2,-1.4917684E-2,-9.176098E-3,1.7787043E-2,-4.193088E-2,-4.120651E-3,-4.7102656E-2,-3.784622E-2,-2.6465341E-2,-4.771901E-2,1.2336902E-2,-2.0945197E-2,1.2330925E-1,1.2483033E-2,-4.6001926E-2,1.5431115E-2,-2.7394136E-2,5.1212437E-2,-1.3459864E-2,-4.6104483E-2,-3.1767942E-2,-2.3005486E-3,-3.7091892E-2,-1.0930925E-2,9.765669E-3,-4.3706518E-2,-1.1468133E-2,1.4496145E-2,-1.7388554E-2,3.52253E-2,-4.665145E-3,-2.4843654E-2,8.229026E-2,2.6520124E-2,-1.1723175E-2,4.1166693E-2,-2.3370627E-2,1.1039118E-2,-3.8434394E-2,-2.238051E-2,-2.8743178E-2,1.2362683E-2,6.3341014E-2,-9.526571E-5,1.3080582E-2,-2.4070997E-2,3.935181E-2,-2.2306945E-2,4.445795E-2,7.0746504E-3,8.052986E-2,2.489685E-2,4.2742465E-2,-2.0329794E-3,-1.2734495E-2,1.43494485E-2,5.5819537E-2,-2.824007E-3,3.960045E-2,9.400054E-2,7.463624E-2,3.241334E-2,8.613377E-2,2.1426085E-2,2.7566953E-2,6.033314E-2,3.9521668E-2,8.104498E-3,-3.2201257E-2,-5.0443906E-2,-3.8305968E-2,-4.9676173E-3,-3.383684E-2,-6.243185E-3,-4.149807E-2,-2.725473E-2,-4.7151743E-6,-3.871232E-2,-3.5039093E-2,-1.4200173E-2,3.5084162E-3,-1.4403366E-2,4.5060467E-2,1.6081616E-2,-5.944226E-3,1.2699182E-2,-3.8251117E-2,-1.8984914E-3,4.5901597E-2,1.8880835E-2,7.255903E-2,4.3201886E-2,-2.5454013E-2,-1.832926E-3,-2.4261069E-2,4.9081617E-3,-2.3578344E-2,1.3738896E-2,-5.2563134E-3,1.3365819E-2,-3.1153554E-2,-1.5982576E-2,-1.2556349E-2,6.1667874E-3,1.4611358E-2,-3.1088635E-2,3.6852293E-2,8.647564E-3,7.397005E-2,-3.1714477E-2,7.277833E-3,2.5951684E-2,3.7132006E-2,5.540334E-2,3.4308974E-2,-4.0383156E-2,2.5112255E-2,8.444718E-2,2.0473672E-2,-1.0192739E-2,4.5178637E-2,-9.262312E-3,4.259208E-2,9.414537E-2,1.33410245E-2,6.327974E-2,6.527318E-2,9.526375E-2,4.151833E-2,7.6129795E-3,7.471528E-2,3.4616753E-2,3.0008678E-3,-4.1980162E-2,-4.997585E-2,-1.4187808E-2,2.4488755E-2,-3.279793E-2,-1.1412593E-2,-2.7718026E-2,3.6625817E-2,1.9240117E-3,3.225999E-2,8.9309864E-2,4.7794585E-3,4.904487E-2,-4.53273E-2,-8.893014E-3,3.665228E-2,5.6108225E-2,-2.452152E-3,3.4363046E-2,1.9736646E-2,3.886637E-2,4.4400018E-2,-2.1492666E-2,5.137294E-2,9.060651E-2,8.98998E-2,1.0647003E-2,8.20606E-3,5.9776958E-2,8.307884E-2,2.1184297E-2,6.282016E-2,8.394046E-2,1.06878094E-1,7.4828275E-2,-2.3756133E-2,3.9462782E-2,-4.892554E-3,3.553952E-2,3.7269857E-2,6.601306E-2,6.890609E-2,5.8475523E-3,-4.2835694E-2,3.5547204E-2,2.8704617E-3,9.908779E-2,4.544473E-2,7.11879E-2,8.6865015E-2,2.4978342E-2,8.818998E-2,3.2731093E-2,1.2727461E-2,5.6130093E-2,5.8363136E-2,-3.0331058E-2,1.0818845E-1,4.757608E-2],"categories":[],"categories_nodes":[],"categories_segments":[],"categories_sizes":[],"default_left":[0,0,0,0,0,0,0,0,0,0,0,0,0,0,0,0,0,0,0,0,0,0,0,0,0,0,0,0,0,0,0,0,0,0,0,0,0,0,0,0,0,0,0,0,0,0,0,0,0,0,0,0,0,0,0,0,0,0,0,0,0,0,0,0,0,0,0,0,0,0,0,0,0,0,0,0,0,0,0,0,0,0,0,0,0,0,0,0,0,0,0,0,0,0,0,0,0,0,0,0,0,0,0,0,0,0,0,0,0,0,0,0,0,0,0,0,0,0,0,0,0,0,0,0,0,0,0,0,0,0,0,0,0,0,0,0,0,0,0,0,0,0,0,0,0,0,0,0,0,0,0,0,0,0,0,0,0,0,0,0,0,0,0,0,0,0,0,0,0,0,0,0,0,0,0,0,0,0,0,0,0,0,0,0,0,0,0,0,0,0,0,0,0,0,0,0,0,0,0,0,0,0,0,0,0,0,0,0,0,0,0,0,0,0,0,0,0,0,0,0,0,0,0,0,0,0,0,0,0,0,0,0,0,0,0,0,0,0,0,0,0,0,0,0,0,0,0,0,0,0,0,0,0,0,0,0,0,0,0,0,0,0,0,0,0,0,0,0,0,0,0,0,0,0,0,0,0,0,0,0,0,0,0,0,0,0,0,0,0,0,0,0,0,0,0,0,0,0,0,0,0,0,0,0,0,0,0,0,0,0,0,0,0,0,0,0,0,0,0,0,0,0,0,0,0,0,0,0,0,0,0,0,0,0,0,0,0,0,0,0,0,0,0,0,0,0,0,0,0,0,0,0,0,0,0,0,0,0,0,0,0,0,0,0,0,0,0,0,0,0,0,0,0,0,0,0,0,0,0,0,0,0,0,0,0,0,0,0,0,0,0,0,0,0,0,0,0,0,0,0,0,0,0,0,0,0,0,0,0,0,0,0,0,0,0,0,0,0,0,0,0,0,0,0,0,0,0,0,0,0,0,0,0,0,0,0,0,0,0,0,0,0,0,0,0,0,0,0,0,0,0,0,0,0,0,0,0,0,0,0,0,0,0,0,0,0,0,0,0,0,0,0,0,0,0,0,0,0,0,0,0,0,0,0,0,0,0,0,0,0,0,0,0,0,0,0,0,0,0,0,0,0,0,0,0,0,0],"id":2,"left_children":[1,3,5,7,9,11,13,15,17,19,21,23,25,27,29,31,33,35,37,39,41,43,45,47,49,51,53,55,57,59,61,63,65,67,69,71,73,75,77,79,81,83,85,87,89,91,93,95,97,99,101,103,105,107,109,111,113,115,117,119,121,123,125,127,129,131,133,135,137,139,141,143,145,147,149,151,153,155,157,159,161,163,165,167,169,171,173,175,177,179,181,183,185,187,189,191,193,195,197,199,201,203,205,207,209,211,213,215,217,219,221,223,225,227,229,231,233,235,237,239,241,243,245,247,249,251,253,255,257,259,261,263,265,267,269,271,273,275,277,279,281,283,285,287,289,291,293,295,297,299,301,303,305,307,309,311,313,315,317,319,321,323,325,327,329,331,333,335,337,339,341,343,345,347,349,351,353,355,357,359,361,363,365,367,369,371,373,375,377,379,381,383,385,387,389,391,393,395,397,399,401,403,405,407,409,411,413,415,417,419,421,423,425,427,429,431,433,435,437,439,441,443,445,447,-1,449,451,453,455,457,459,461,463,465,467,469,471,-1,473,475,477,479,481,483,485,487,489,491,493,495,497,499,501,503,505,-1,-1,-1,-1,-1,-1,-1,-1,-1,-1,-1,-1,-1,-1,-1,-1,-1,-1,-1,-1,-1,-1,-1,-1,-1,-1,-1,-1,-1,-1,-1,-1,-1,-1,-1,-1,-1,-1,-1,-1,-1,-1,-1,-1,-1,-1,-1,-1,-1,-1,-1,-1,-1,-1,-1,-1,-1,-1,-1,-1,-1,-1,-1,-1,-1,-1,-1,-1,-1,-1,-1,-1,-1,-1,-1,-1,-1,-1,-1,-1,-1,-1,-1,-1,-1,-1,-1,-1,-1,-1,-1,-1,-1,-1,-1,-1,-1,-1,-1,-1,-1,-1,-1,-1,-1,-1,-1,-1,-1,-1,-1,-1,-1,-1,-1,-1,-1,-1,-1,-1,-1,-1,-1,-1,-1,-1,-1,-1,-1,-1,-1,-1,-1,-1,-1,-1,-1,-1,-1,-1,-1,-1,-1,-1,-1,-1,-1,-1,-1,-1,-1,-1,-1,-1,-1,-1,-1,-1,-1,-1,-1,-1,-1,-1,-1,-1,-1,-1,-1,-1,-1,-1,-1,-1,-1,-1,-1,-1,-1,-1,-1,-1,-1,-1,-1,-1,-1,-1,-1,-1,-1,-1,-1,-1,-1,-1,-1,-1,-1,-1,-1,-1,-1,-1,-1,-1,-1,-1,-1,-1,-1,-1,-1,-1,-1,-1,-1,-1,-1,-1,-1,-1,-1,-1,-1,-1,-1,-1,-1,-1,-1,-1,-1,-1,-1,-1,-1,-1,-1,-1,-1,-1,-1,-1,-1,-1,-1,-1,-1,-1,-1,-1],"loss_changes":[9.269569E3,9.086621E2,2.6484521E3,4.0970898E2,2.3665604E2,9.079079E2,9.808906E2,2.2569922E2,2.1140356E2,4.6159622E1,8.057963E1,4.8057584E2,1.949784E2,2.994061E2,4.1272803E2,1.218916E2,1.13605774E2,8.227258E1,7.541913E1,1.4286438E1,1.9329493E1,7.2822754E1,3.4354813E1,1.6866321E2,2.2831569E2,1.27150604E2,6.5583496E1,5.474615E1,7.888214E1,9.75531E1,5.4049805E1,2.5756348E1,4.0486572E1,4.006964E1,1.7321514E1,5.8117065E1,1.3455987E1,2.0053009E1,4.982743E1,6.744232E0,7.5985193E0,2.277954E0,2.2295092E1,1.939188E1,2.8082584E1,2.3422518E1,2.2691177E1,2.7363708E1,8.934246E1,1.343666E2,9.679216E1,3.253961E1,6.1053772E1,9.96347E0,4.0501038E1,4.7368546E0,4.1889767E1,5.8676544E1,9.893372E0,3.9872192E1,7.709204E1,3.604236E1,2.2278076E1,7.357422E0,1.8884277E1,4.388214E0,2.1668854E1,1.3061707E1,1.7045303E1,1.067212E1,3.9708662E0,1.7651611E1,1.996521E1,4.239385E0,6.4337673E0,1.2760956E1,6.9007235E0,3.0902252E1,1.6108055E1,4.152069E-1,7.4077454E0,8.897353E0,1.6004767E0,2.8639812E0,2.5662792E0,5.8457656E0,3.679388E0,6.1394386E0,5.299033E0,1.4055076E1,1.0904037E1,1.0389902E1,1.9181015E1,1.6315231E1,7.2900925E0,1.0081177E1,1.8636047E1,1.4067261E1,4.6521576E1,2.9722664E1,5.0852814E1,1.6987381E1,5.9116894E1,8.684371E0,2.3574322E1,1.8371586E1,2.3394287E1,7.9963255E0,6.156555E0,1.9421997E1,8.768696E0,4.705318E0,3.138588E0,3.481257E1,1.2050165E1,2.1440002E1,2.7440487E1,5.16259E0,1.0958939E1,1.18585E1,2.1389893E1,2.5614223E1,3.7723206E1,1.60932E1,2.5216858E1,9.568787E0,1.4128906E1,5.682617E0,3.2967148E0,8.301025E0,4.6736145E0,1.2560425E0,5.8803825E0,1.6919617E1,9.802074E0,5.3723984E0,5.1433716E0,1.512905E1,9.980331E0,5.9215546E-2,1.0673492E1,5.4533215E0,1.9198589E0,7.5798798E0,1.3060816E1,1.1548279E1,1.2514282E1,3.465516E0,3.6776192E0,3.6841307E0,4.373044E0,3.3823652E0,5.621643E0,6.2221975E0,2.7416933E0,2.482781E1,9.925858E0,4.708729E0,5.5985847E0,1.5453877E0,2.775879E-1,6.392868E0,3.7392535E0,8.87004E0,6.65765E0,5.319668E0,7.282858E-1,3.3430696E0,3.7154617E0,1.491925E0,1.5631573E0,8.789156E0,2.979567E0,2.3920135E0,3.6643877E0,7.1779633E0,2.0997543E0,7.039257E0,5.0839844E0,2.4559212E0,1.1004662E1,1.0175293E1,5.854435E0,2.8457394E0,9.970766E0,5.595339E0,2.0810585E0,6.1905518E0,3.0084E0,6.924839E0,5.3712363E0,4.3381042E0,3.3969398E0,1.5781078E1,5.849365E0,1.8359116E1,5.606449E0,3.0248228E1,8.159401E0,2.8784996E1,2.312849E0,4.635736E1,9.556061E0,1.1872955E1,7.9081607E0,9.495007E0,2.4084229E1,2.1738605E0,4.4063807E0,6.758456E0,1.6623825E1,6.33926E0,1.0866823E1,1.4387543E1,1.0359244E1,6.1327705E0,5.925149E0,8.252771E0,6.1546745E0,1.2185928E1,1.8231628E1,5.779825E0,5.7327156E0,1.1058266E0,0E0,1.8042755E-1,3.4327264E0,7.299465E0,1.4758604E1,1.0296371E1,5.2779875E0,5.8341694E-1,1.572934E1,1.762423E1,5.790085E0,5.365862E0,4.9802017E0,0E0,5.350128E0,8.833984E0,4.5562515E0,1.2876099E1,1.8475342E0,8.357613E0,1.7192896E1,3.0534271E1,1.3772919E1,3.3939548E0,7.8476562E0,1.1821808E1,8.786041E0,2.0599976E0,2.7194386E0,4.557711E0,1.1519287E1,0E0,0E0,0E0,0E0,0E0,0E0,0E0,0E0,0E0,0E0,0E0,0E0,0E0,0E0,0E0,0E0,0E0,0E0,0E0,0E0,0E0,0E0,0E0,0E0,0E0,0E0,0E0,0E0,0E0,0E0,0E0,0E0,0E0,0E0,0E0,0E0,0E0,0E0,0E0,0E0,0E0,0E0,0E0,0E0,0E0,0E0,0E0,0E0,0E0,0E0,0E0,0E0,0E0,0E0,0E0,0E0,0E0,0E0,0E0,0E0,0E0,0E0,0E0,0E0,0E0,0E0,0E0,0E0,0E0,0E0,0E0,0E0,0E0,0E0,0E0,0E0,0E0,0E0,0E0,0E0,0E0,0E0,0E0,0E0,0E0,0E0,0E0,0E0,0E0,0E0,0E0,0E0,0E0,0E0,0E0,0E0,0E0,0E0,0E0,0E0,0E0,0E0,0E0,0E0,0E0,0E0,0E0,0E0,0E0,0E0,0E0,0E0,0E0,0E0,0E0,0E0,0E0,0E0,0E0,0E0,0E0,0E0,0E0,0E0,0E0,0E0,0E0,0E0,0E0,0E0,0E0,0E0,0E0,0E0,0E0,0E0,0E0,0E0,0E0,0E0,0E0,0E0,0E0,0E0,0E0,0E0,0E0,0E0,0E0,0E0,0E0,0E0,0E0,0E0,0E0,0E0,0E0,0E0,0E0,0E0,0E0,0E0,0E0,0E0,0E0,0E0,0E0,0E0,0E0,0E0,0E0,0E0,0E0,0E0,0E0,0E0,0E0,0E0,0E0,0E0,0E0,0E0,0E0,0E0,0E0,0E0,0E0,0E0,0E0,0E0,0E0,0E0,0E0,0E0,0E0,0E0,0E0,0E0,0E0,0E0,0E0,0E0,0E0,0E0,0E0,0E0,0E0,0E0,0E0,0E0,0E0,0E0,0E0,0E0,0E0,0E0,0E0,0E0,0E0,0E0,0E0,0E0,0E0,0E0,0E0,0E0,0E0,0E0,0E0,0E0,0E0,0E0,0E0,0E0,0E0,0E0,0E0,0E0,0E0,0E0,0E0,0E0,0E0,0E0,0E0,0E0,0E0,0E0,0E0,0E0,0E0,0E0],"parents":[2147483647,0,0,1,1,2,2,3,3,4,4,5,5,6,6,7,7,8,8,9,9,10,10,11,11,12,12,13,13,14,14,15,15,16,16,17,17,18,18,19,19,20,20,21,21,22,22,23,23,24,24,25,25,26,26,27,27,28,28,29,29,30,30,31,31,32,32,33,33,34,34,35,35,36,36,37,37,38,38,39,39,40,40,41,41,42,42,43,43,44,44,45,45,46,46,47,47,48,48,49,49,50,50,51,51,52,52,53,53,54,54,55,55,56,56,57,57,58,58,59,59,60,60,61,61,62,62,63,63,64,64,65,65,66,66,67,67,68,68,69,69,70,70,71,71,72,72,73,73,74,74,75,75,76,76,77,77,78,78,79,79,80,80,81,81,82,82,83,83,84,84,85,85,86,86,87,87,88,88,89,89,90,90,91,91,92,92,93,93,94,94,95,95,96,96,97,97,98,98,99,99,100,100,101,101,102,102,103,103,104,104,105,105,106,106,107,107,108,108,109,109,110,110,111,111,112,112,113,113,114,114,115,115,116,116,117,117,118,118,119,119,120,120,121,121,122,122,123,123,124,124,125,125,126,126,127,127,128,128,129,129,130,130,131,131,132,132,133,133,134,134,135,135,136,136,137,137,138,138,139,139,140,140,141,141,142,142,143,143,144,144,145,145,146,146,147,147,148,148,149,149,150,150,151,151,152,152,153,153,154,154,155,155,156,156,157,157,158,158,159,159,160,160,161,161,162,162,163,163,164,164,165,165,166,166,167,167,168,168,169,169,170,170,171,171,172,172,173,173,174,174,175,175,176,176,177,177,178,178,179,179,180,180,181,181,182,182,183,183,184,184,185,185,186,186,187,187,188,188,189,189,190,190,191,191,192,192,193,193,194,194,195,195,196,196,197,197,198,198,199,199,200,200,201,201,202,202,203,203,204,204,205,205,206,206,207,207,208,208,209,209,210,210,211,211,212,212,213,213,214,214,215,215,216,216,217,217,218,218,219,219,220,220,221,221,222,222,223,223,225,225,226,226,227,227,228,228,229,229,230,230,231,231,232,232,233,233,234,234,235,235,236,236,238,238,239,239,240,240,241,241,242,242,243,243,244,244,245,245,246,246,247,247,248,248,249,249,250,250,251,251,252,252,253,253,254,254],"right_children":[2,4,6,8,10,12,14,16,18,20,22,24,26,28,30,32,34,36,38,40,42,44,46,48,50,52,54,56,58,60,62,64,66,68,70,72,74,76,78,80,82,84,86,88,90,92,94,96,98,100,102,104,106,108,110,112,114,116,118,120,122,124,126,128,130,132,134,136,138,140,142,144,146,148,150,152,154,156,158,160,162,164,166,168,170,172,174,176,178,180,182,184,186,188,190,192,194,196,198,200,202,204,206,208,210,212,214,216,218,220,222,224,226,228,230,232,234,236,238,240,242,244,246,248,250,252,254,256,258,260,262,264,266,268,270,272,274,276,278,280,282,284,286,288,290,292,294,296,298,300,302,304,306,308,310,312,314,316,318,320,322,324,326,328,330,332,334,336,338,340,342,344,346,348,350,352,354,356,358,360,362,364,366,368,370,372,374,376,378,380,382,384,386,388,390,392,394,396,398,400,402,404,406,408,410,412,414,416,418,420,422,424,426,428,430,432,434,436,438,440,442,444,446,448,-1,450,452,454,456,458,460,462,464,466,468,470,472,-1,474,476,478,480,482,484,486,488,490,492,494,496,498,500,502,504,506,-1,-1,-1,-1,-1,-1,-1,-1,-1,-1,-1,-1,-1,-1,-1,-1,-1,-1,-1,-1,-1,-1,-1,-1,-1,-1,-1,-1,-1,-1,-1,-1,-1,-1,-1,-1,-1,-1,-1,-1,-1,-1,-1,-1,-1,-1,-1,-1,-1,-1,-1,-1,-1,-1,-1,-1,-1,-1,-1,-1,-1,-1,-1,-1,-1,-1,-1,-1,-1,-1,-1,-1,-1,-1,-1,-1,-1,-1,-1,-1,-1,-1,-1,-1,-1,-1,-1,-1,-1,-1,-1,-1,-1,-1,-1,-1,-1,-1,-1,-1,-1,-1,-1,-1,-1,-1,-1,-1,-1,-1,-1,-1,-1,-1,-1,-1,-1,-1,-1,-1,-1,-1,-1,-1,-1,-1,-1,-1,-1,-1,-1,-1,-1,-1,-1,-1,-1,-1,-1,-1,-1,-1,-1,-1,-1,-1,-1,-1,-1,-1,-1,-1,-1,-1,-1,-1,-1,-1,-1,-1,-1,-1,-1,-1,-1,-1,-1,-1,-1,-1,-1,-1,-1,-1,-1,-1,-1,-1,-1,-1,-1,-1,-1,-1,-1,-1,-1,-1,-1,-1,-1,-1,-1,-1,-1,-1,-1,-1,-1,-1,-1,-1,-1,-1,-1,-1,-1,-1,-1,-1,-1,-1,-1,-1,-1,-1,-1,-1,-1,-1,-1,-1,-1,-1,-1,-1,-1,-1,-1,-1,-1,-1,-1,-1,-1,-1,-1,-1,-1,-1,-1,-1,-1,-1,-1,-1,-1,-1,-1,-1,-1,-1],"split_conditions":[1.153586E0,2.2226367E0,5.4643226E-1,1.1651582E0,-5.8765896E-2,2.2226367E0,1.1651582E0,6.424694E-1,2.4383318E-1,1.1651582E0,3.152964E-1,1.1651582E0,3.1030114E0,-1.1876594E-2,2.2226367E0,5.4643226E-1,2.4383318E-1,3.1030114E0,-3.390496E-1,3.1030114E0,-5.126645E-1,1.1651582E0,5.4643226E-1,3.152964E-1,4.5689633E-1,1.1651582E0,-5.126645E-1,-1.3205687E0,3.1030114E0,-2.5939984E-2,1.3029299E0,-5.8765896E-2,-9.933956E-1,1.1296577E0,3.1030114E0,-2.5939984E-2,-5.8765896E-2,1.2352264E0,9.397326E-1,-6.6396403E-1,5.673431E-1,3.1030114E0,3.1030114E0,1.7568285E0,6.977318E-1,3.1030114E0,-5.087763E-1,-3.390496E-1,-5.126645E-1,-2.1006544E-1,-2.1006544E-1,-2.1006544E-1,-2.1006544E-1,1.1296577E0,1.6239884E0,-1.0662031E0,1.2352264E0,4.5689633E-1,1.1516304E0,-6.6622263E-1,-3.390496E-1,-9.916126E-1,-3.7115428E-1,2.2678998E0,-1.1876594E-2,-2.6929848E-2,3.1030114E0,-5.087763E-1,-5.1660948E-2,1.9747442E-1,4.5689633E-1,-3.6136496E-1,3.152964E-1,8.781163E-2,3.152964E-1,-2.0807455E0,4.5689633E-1,3.1030114E0,1.0003308E0,-1.5717613E0,9.696424E-1,1.1198915E0,7.762605E-1,-9.916126E-1,4.82023E-1,-3.6136496E-1,-5.087763E-1,-5.087763E-1,-1.1876594E-2,1.3499678E0,2.2107272E0,-1.4744489E0,-5.1660948E-2,1.3029299E0,5.673431E-1,1.0057434E0,4.5689633E-1,1.1296577E0,3.1030114E0,4.1097426E0,8.9100194E-1,3.1030114E0,-1.1876594E-2,-6.6396403E-1,-1.1876594E-2,-2.0807455E0,4.1097426E0,-1.4744489E0,1.2352264E0,3.152964E-1,1.1296577E0,5.4677755E-1,2.664626E0,1.605529E0,-5.1660948E-2,1.9747442E-1,6.424694E-1,1.1296577E0,2.2735928E-1,2.2107272E0,1.2352264E0,8.490313E-1,1.4542295E0,-9.933956E-1,1.1296577E0,1.2968154E0,1.9747442E-1,-3.390496E-1,3.152964E-1,1.9236752E0,3.1030114E0,-5.087763E-1,1.605529E0,1.0003308E0,1.2352264E0,-6.6396403E-1,-3.6136496E-1,-6.6396403E-1,9.696424E-1,1.2968154E0,5.673431E-1,1.6239884E0,-5.1660948E-2,-2.0807455E0,-2.6929848E-2,-2.1006544E-1,1.1296577E0,-9.916126E-1,1.2352264E0,7.588142E-1,9.6288127E-1,3.3128865E0,1.4542295E0,-9.933956E-1,-5.1660948E-2,1.0003308E0,8.490313E-1,1.1198915E0,3.152964E-1,-1.7230608E0,-8.1526357E-1,-2.5939984E-2,-1.4744489E0,-1.4744489E0,-9.665631E-1,3.1729457E-1,1.1198915E0,-9.665631E-1,1.1296577E0,-3.7115428E-1,-5.087763E-1,8.781163E-2,9.696424E-1,1.1296577E0,-5.1660948E-2,-1.1876594E-2,1.1296577E0,-2.6929848E-2,5.673431E-1,-1.0662031E0,4.5689633E-1,-2.5939984E-2,3.572423E0,1.6239884E0,1.1651582E0,-1.0662031E0,6.424694E-1,-1.0662031E0,3.7237225E0,1.1296577E0,-5.1660948E-2,-9.916126E-1,-3.6136496E-1,-2.1006544E-1,9.253364E-2,-1.4744489E0,6.424694E-1,-2.5939984E-2,-5.087763E-1,-6.6396403E-1,3.3128865E0,-9.916126E-1,1.1296577E0,6.61519E-1,1.1296577E0,5.4677755E-1,-5.8765896E-2,6.424694E-1,-5.1660948E-2,-1.4744489E0,-5.087763E-1,4.1097426E0,-5.126645E-1,9.253364E-2,-5.087763E-1,1.6239884E0,1.6239884E0,1.6239884E0,-6.6396403E-1,1.1651582E0,-5.8765896E-2,-9.916126E-1,5.673431E-1,1.1198915E0,6.745141E-2,3.1030114E0,-1.4744489E0,9.397326E-1,-5.087763E-1,2.3620267E0,3.269824E0,1.7568285E0,4.3203604E-1,2.2226367E0,1.1296577E0,3.3128865E0,8.490313E-1,-3.627027E-2,4.0263214E0,7.762605E-1,-5.087763E-1,1.4542295E0,-5.087763E-1,3.3128865E0,-9.933956E-1,3.1030114E0,4.1097426E0,7.588142E-1,1.9747442E-1,1.2352264E0,4.1097426E0,4.1097426E0,4.82023E-1,-1.4744489E0,4.1097426E0,-5.732863E-2,-5.3619143E-2,-4.564714E-2,-2.0205138E-2,-5.2109968E-2,-2.2093521E-2,-3.993982E-2,-9.048301E-3,-4.3990765E-2,-5.2188117E-2,-4.5369443E-2,-1.4320548E-2,-3.9014727E-2,-2.4642536E-2,4.4916044E-3,9.491315E-2,-4.222348E-2,-2.5830215E-2,-5.0888836E-2,-4.0716887E-2,-3.8713213E-2,-5.197327E-3,-4.1753042E-2,-2.6774129E-2,-5.645981E-2,-2.0747183E-2,9.288722E-3,-1.2392293E-2,6.1594374E-2,-9.940344E-3,-2.680317E-2,1.8759092E-2,9.012595E-3,-3.3708718E-2,-2.0889513E-2,5.373192E-3,-5.0514527E-2,-3.981555E-2,-4.1686635E-2,-3.0350033E-2,9.457474E-3,-1.8058425E-2,2.1515073E-2,-1.2278482E-2,-4.8701923E-2,1.2155071E-2,5.1495995E-2,1.2505136E-2,5.356738E-2,-1.3586946E-2,-3.544876E-2,-1.971623E-2,-1.5286601E-3,6.2100835E-2,3.5822786E-2,-2.8237283E-2,-3.4635055E-3,2.3607073E-2,2.8823836E-2,7.930029E-2,-2.9576292E-2,-1.4917684E-2,-9.176098E-3,1.7787043E-2,-4.193088E-2,-4.120651E-3,-4.7102656E-2,-3.784622E-2,-2.6465341E-2,-4.771901E-2,1.2336902E-2,-2.0945197E-2,1.2330925E-1,1.2483033E-2,-4.6001926E-2,1.5431115E-2,-2.7394136E-2,5.1212437E-2,-1.3459864E-2,-4.6104483E-2,-3.1767942E-2,-2.3005486E-3,-3.7091892E-2,-1.0930925E-2,9.765669E-3,-4.3706518E-2,-1.1468133E-2,1.4496145E-2,-1.7388554E-2,3.52253E-2,-4.665145E-3,-2.4843654E-2,8.229026E-2,2.6520124E-2,-1.1723175E-2,4.1166693E-2,-2.3370627E-2,1.1039118E-2,-3.8434394E-2,-2.238051E-2,-2.8743178E-2,1.2362683E-2,6.3341014E-2,-9.526571E-5,1.3080582E-2,-2.4070997E-2,3.935181E-2,-2.2306945E-2,4.445795E-2,7.0746504E-3,8.052986E-2,2.489685E-2,4.2742465E-2,-2.0329794E-3,-1.2734495E-2,1.43494485E-2,5.5819537E-2,-2.824007E-3,3.960045E-2,9.400054E-2,7.463624E-2,3.241334E-2,8.613377E-2,2.1426085E-2,2.7566953E-2,6.033314E-2,3.9521668E-2,8.104498E-3,-3.2201257E-2,-5.0443906E-2,-3.8305968E-2,-4.9676173E-3,-3.383684E-2,-6.243185E-3,-4.149807E-2,-2.725473E-2,-4.7151743E-6,-3.871232E-2,-3.5039093E-2,-1.4200173E-2,3.5084162E-3,-1.4403366E-2,4.5060467E-2,1.6081616E-2,-5.944226E-3,1.2699182E-2,-3.8251117E-2,-1.8984914E-3,4.5901597E-2,1.8880835E-2,7.255903E-2,4.3201886E-2,-2.5454013E-2,-1.832926E-3,-2.4261069E-2,4.9081617E-3,-2.3578344E-2,1.3738896E-2,-5.2563134E-3,1.3365819E-2,-3.1153554E-2,-1.5982576E-2,-1.2556349E-2,6.1667874E-3,1.4611358E-2,-3.1088635E-2,3.6852293E-2,8.647564E-3,7.397005E-2,-3.1714477E-2,7.277833E-3,2.5951684E-2,3.7132006E-2,5.540334E-2,3.4308974E-2,-4.0383156E-2,2.5112255E-2,8.444718E-2,2.0473672E-2,-1.0192739E-2,4.5178637E-2,-9.262312E-3,4.259208E-2,9.414537E-2,1.33410245E-2,6.327974E-2,6.527318E-2,9.526375E-2,4.151833E-2,7.6129795E-3,7.471528E-2,3.4616753E-2,3.0008678E-3,-4.1980162E-2,-4.997585E-2,-1.4187808E-2,2.4488755E-2,-3.279793E-2,-1.1412593E-2,-2.7718026E-2,3.6625817E-2,1.9240117E-3,3.225999E-2,8.9309864E-2,4.7794585E-3,4.904487E-2,-4.53273E-2,-8.893014E-3,3.665228E-2,5.6108225E-2,-2.452152E-3,3.4363046E-2,1.9736646E-2,3.886637E-2,4.4400018E-2,-2.1492666E-2,5.137294E-2,9.060651E-2,8.98998E-2,1.0647003E-2,8.20606E-3,5.9776958E-2,8.307884E-2,2.1184297E-2,6.282016E-2,8.394046E-2,1.06878094E-1,7.4828275E-2,-2.3756133E-2,3.9462782E-2,-4.892554E-3,3.553952E-2,3.7269857E-2,6.601306E-2,6.890609E-2,5.8475523E-3,-4.2835694E-2,3.5547204E-2,2.8704617E-3,9.908779E-2,4.544473E-2,7.11879E-2,8.6865015E-2,2.4978342E-2,8.818998E-2,3.2731093E-2,1.2727461E-2,5.6130093E-2,5.8363136E-2,-3.0331058E-2,1.0818845E-1,4.757608E-2],"split_indices":[0,16,3,1,3,16,1,18,3,1,18,1,6,18,16,3,3,6,18,6,3,1,3,18,20,1,3,18,6,20,3,3,18,17,6,20,3,15,20,3,7,6,6,3,3,6,20,18,3,3,3,3,3,17,18,19,15,20,3,18,18,20,15,15,18,15,6,20,19,2,20,3,18,15,18,19,20,6,3,3,18,4,15,20,9,3,20,20,18,15,3,20,19,3,7,15,20,17,6,10,15,6,18,3,18,19,10,20,15,18,17,15,3,3,19,2,18,17,11,3,15,3,3,18,17,18,2,18,18,15,6,20,3,3,15,3,3,3,18,18,7,18,19,19,15,3,17,20,15,8,19,12,3,18,19,3,3,4,18,3,3,20,20,20,3,15,4,3,17,15,20,15,18,17,19,18,17,15,7,19,20,20,3,18,1,19,18,19,3,17,19,20,3,3,3,20,18,20,20,3,12,20,17,15,17,15,3,18,19,20,20,10,3,3,20,18,18,18,3,1,3,20,7,4,0,6,20,20,20,3,3,3,15,16,17,12,3,0,3,15,20,3,20,12,18,6,10,8,2,15,10,10,9,20,10,0,0,0,0,0,0,0,0,0,0,0,0,0,0,0,0,0,0,0,0,0,0,0,0,0,0,0,0,0,0,0,0,0,0,0,0,0,0,0,0,0,0,0,0,0,0,0,0,0,0,0,0,0,0,0,0,0,0,0,0,0,0,0,0,0,0,0,0,0,0,0,0,0,0,0,0,0,0,0,0,0,0,0,0,0,0,0,0,0,0,0,0,0,0,0,0,0,0,0,0,0,0,0,0,0,0,0,0,0,0,0,0,0,0,0,0,0,0,0,0,0,0,0,0,0,0,0,0,0,0,0,0,0,0,0,0,0,0,0,0,0,0,0,0,0,0,0,0,0,0,0,0,0,0,0,0,0,0,0,0,0,0,0,0,0,0,0,0,0,0,0,0,0,0,0,0,0,0,0,0,0,0,0,0,0,0,0,0,0,0,0,0,0,0,0,0,0,0,0,0,0,0,0,0,0,0,0,0,0,0,0,0,0,0,0,0,0,0,0,0,0,0,0,0,0,0,0,0,0,0,0,0,0,0,0,0,0,0,0,0,0,0,0,0,0,0,0,0,0,0,0,0],"split_type":[0,0,0,0,0,0,0,0,0,0,0,0,0,0,0,0,0,0,0,0,0,0,0,0,0,0,0,0,0,0,0,0,0,0,0,0,0,0,0,0,0,0,0,0,0,0,0,0,0,0,0,0,0,0,0,0,0,0,0,0,0,0,0,0,0,0,0,0,0,0,0,0,0,0,0,0,0,0,0,0,0,0,0,0,0,0,0,0,0,0,0,0,0,0,0,0,0,0,0,0,0,0,0,0,0,0,0,0,0,0,0,0,0,0,0,0,0,0,0,0,0,0,0,0,0,0,0,0,0,0,0,0,0,0,0,0,0,0,0,0,0,0,0,0,0,0,0,0,0,0,0,0,0,0,0,0,0,0,0,0,0,0,0,0,0,0,0,0,0,0,0,0,0,0,0,0,0,0,0,0,0,0,0,0,0,0,0,0,0,0,0,0,0,0,0,0,0,0,0,0,0,0,0,0,0,0,0,0,0,0,0,0,0,0,0,0,0,0,0,0,0,0,0,0,0,0,0,0,0,0,0,0,0,0,0,0,0,0,0,0,0,0,0,0,0,0,0,0,0,0,0,0,0,0,0,0,0,0,0,0,0,0,0,0,0,0,0,0,0,0,0,0,0,0,0,0,0,0,0,0,0,0,0,0,0,0,0,0,0,0,0,0,0,0,0,0,0,0,0,0,0,0,0,0,0,0,0,0,0,0,0,0,0,0,0,0,0,0,0,0,0,0,0,0,0,0,0,0,0,0,0,0,0,0,0,0,0,0,0,0,0,0,0,0,0,0,0,0,0,0,0,0,0,0,0,0,0,0,0,0,0,0,0,0,0,0,0,0,0,0,0,0,0,0,0,0,0,0,0,0,0,0,0,0,0,0,0,0,0,0,0,0,0,0,0,0,0,0,0,0,0,0,0,0,0,0,0,0,0,0,0,0,0,0,0,0,0,0,0,0,0,0,0,0,0,0,0,0,0,0,0,0,0,0,0,0,0,0,0,0,0,0,0,0,0,0,0,0,0,0,0,0,0,0,0,0,0,0,0,0,0,0,0,0,0,0,0,0,0,0,0,0,0,0,0,0,0,0,0,0,0,0,0,0,0,0,0,0,0,0,0,0,0,0,0,0,0,0,0,0,0,0,0,0,0,0,0],"sum_hessian":[2.8997436E4,1.605138E4,1.2946056E4,1.4458163E4,1.5932162E3,8.461304E3,4.4847515E3,1.0275058E4,4.1831055E3,7.2476917E2,8.68447E2,6.593845E3,1.8674586E3,1.7127449E3,2.7720066E3,8.389434E3,1.8856245E3,3.0004358E3,1.1826694E3,4.4257562E2,2.8219354E2,4.2624695E2,4.4220004E2,2.7823364E3,3.8115085E3,1.310207E3,5.572516E2,6.273729E2,1.085372E3,1.6041461E3,1.1678605E3,7.0004663E3,1.3889672E3,1.555955E3,3.2966956E2,2.8222358E3,1.7819992E2,4.1170932E2,7.709601E2,3.950294E2,4.7546246E1,1.3975319E2,1.4244034E2,2.4673297E2,1.7951396E2,1.964892E2,2.4571086E2,1.0683395E3,1.713997E3,1.9112809E3,1.9002278E3,4.8682812E2,8.2337897E2,1.48351E2,4.0890057E2,9.363664E1,5.337363E2,9.4056683E2,1.4480507E2,5.465725E2,1.0575736E3,5.6088556E2,6.069749E2,5.3584707E3,1.6419958E3,5.3521356E2,8.5375354E2,9.066275E2,6.493275E2,3.0352252E2,2.6147028E1,6.230441E2,2.199192E3,1.400873E2,3.8112614E1,3.8780713E2,2.3902195E1,4.5859137E2,3.123687E2,1.7719414E2,2.1783525E2,2.39794E1,2.3566845E1,1.1222061E2,2.7532587E1,1.1639355E2,2.6046791E1,1.8883623E2,5.789675E1,7.498108E1,1.0453289E2,1.5832547E2,3.8163734E1,1.03630295E2,1.4208057E2,4.8389423E2,5.844453E2,5.6182605E2,1.1521709E3,9.133254E2,9.9795544E2,8.089025E2,1.0913253E3,2.327701E2,2.5405803E2,3.3930185E2,4.8407712E2,8.690387E1,6.1447124E1,3.1715744E2,9.1743126E1,5.315464E0,8.832118E1,4.4331085E2,9.042545E1,5.48015E2,3.9255182E2,7.5461075E1,6.934399E1,6.7184364E1,4.7938812E2,1.8191473E2,8.756589E2,2.0348665E2,3.573989E2,1.2238924E2,4.845857E2,5.24702E3,1.1145039E2,1.2131715E3,4.288243E2,4.6053592E2,7.4677666E1,8.3680597E2,1.694755E1,2.1642091E2,6.9020654E2,1.6966411E2,4.796634E2,1.1868805E1,2.9165372E2,1.5691588E1,1.045544E1,3.3876706E2,2.8427707E2,1.162175E3,1.0370167E3,1.0960116E2,3.0486141E1,8.464176E0,2.9648438E1,6.962405E0,3.8084473E2,1.4742132E1,9.160063E0,4.1416568E2,4.4425682E1,2.360947E2,7.627402E1,1.1585513E1,1.6560863E2,1.5200468E2,6.583057E1,7.1722136E0,1.6807188E1,1.1114043E1,1.2452801E1,4.094532E1,7.127529E1,6.3104906E0,2.1222095E1,3.1072708E1,8.532084E1,1.1826258E1,1.4220533E1,7.936138E1,1.0947484E2,4.606579E1,1.1830961E1,3.9914753E1,3.5066322E1,7.6501564E1,2.8031322E1,2.4127659E1,1.341978E2,1.9432913E1,1.873082E1,5.8214157E1,4.5416134E1,7.4144684E1,6.793588E1,4.5260257E2,3.1291672E1,2.0973793E2,3.7470737E2,3.5711423E2,2.047118E2,1.0344619E3,1.17709E2,8.651505E2,4.8174908E1,8.7215436E2,1.2580109E2,6.917047E2,1.1719779E2,2.2373163E2,8.675936E2,1.0814902E2,1.2462108E2,4.1400665E1,2.1265736E2,1.745469E1,3.2184714E2,4.6670828E2,1.7368832E1,2.330974E1,6.3594124E1,2.8844215E1,3.260291E1,7.619363E1,2.4096382E2,5.063567E1,4.110746E1,4.3052397E0,1.0102248E0,7.471071E1,1.3610471E1,2.8855792E2,1.5475294E2,4.1703255E1,4.87222E1,7.746055E0,5.40269E2,2.2344434E2,1.6910747E2,3.0017881E1,4.5443195E1,1.3339417E0,6.801004E1,5.0286404E1,1.6897964E1,4.0826004E2,7.1128105E1,5.1142876E1,1.3077187E2,6.497966E2,2.2586226E2,3.5692637E0,1.9991737E2,2.004121E2,1.5698682E2,1.0232842E2,2.0060808E1,3.9458902E0,4.806398E2,3.1514956E3,2.0955247E3,9.404487E1,1.7405525E1,1.1876176E3,2.5553991E1,4.1551483E2,1.3309451E1,1.0996753E2,3.505684E2,5.143528E1,2.3242384E1,4.2007437E2,4.1673163E2,1.41028805E1,2.844669E0,9.780675E1,1.1861417E2,4.8096194E2,2.0924461E2,4.5387352E1,1.2427676E2,1.9381572E2,2.858477E2,1.015331E1,1.715495E0,7.610967E1,2.1554404E2,1.2698161E1,2.9934266E0,2.123533E0,8.331906E0,1.0332537E1,3.284345E2,2.2483147E2,5.9445606E1,7.3318066E2,4.2899445E2,5.9572186E2,4.412949E2,1.2324819E1,9.7276344E1,1.638669E1,1.4099451E1,3.3242261E0,5.13995E0,1.5208478E1,1.44399605E1,4.6684923E0,2.2939126E0,3.056797E2,7.516504E1,6.4905057E0,8.251627E0,1.1531593E0,8.006904E0,2.9674335E2,1.17422325E2,2.9002598E1,1.5423082E1,1.4056104E2,9.553365E1,4.303822E1,3.32358E1,7.200181E0,4.3853326E0,1.2429972E2,4.1308903E1,8.1127426E1,7.087725E1,9.208256E0,5.6622314E1,2.015482E0,5.1567316E0,6.1323185E0,1.067487E1,9.364297E0,1.749746E0,3.340517E0,9.112284E0,1.4185195E1,2.6760126E1,5.1518288E1,1.9757002E1,1.2554414E0,5.055049E0,1.10125E1,1.0209596E1,1.2594222E1,1.8478485E1,5.94874E1,2.5833439E1,7.6704187E0,4.1558385E0,4.118064E0,1.0102469E1,5.984994E1,1.9511442E1,7.363519E1,3.5839653E1,1.4260153E1,3.1805635E1,6.2245555E0,5.606406E0,4.4261866E0,3.5488567E1,2.5911358E1,9.1549635E0,4.613219E1,3.0369377E1,2.045813E1,7.573191E0,1.9962152E1,4.1655064E0,7.0135994E1,6.4061806E1,4.5527143E0,1.48801985E1,4.4435234E0,1.4287297E1,1.1041089E1,4.717307E1,4.2728363E1,2.6877704E0,4.75552E1,2.6589487E1,1.811575E1,4.9820133E1,4.2979416E1,4.0962314E2,1.209428E1,1.9197392E1,9.2975746E1,1.16762184E2,2.6312405E2,1.1158332E2,3.3829666E1,3.2328455E2,4.0312973E1,1.6439883E2,3.6213724E2,6.723247E2,3.4625748E1,8.308325E1,3.4102878E2,5.241217E2,4.319945E1,4.9754567E0,2.0912221E2,6.6303217E2,6.7525856E1,5.8275238E1,6.334609E2,5.824385E1,3.0649212E1,8.6548584E1,2.0579584E2,1.7935797E1,2.3913115E2,6.2846246E2,3.9677643E1,6.8471375E1,5.710364E1,6.751743E1,1.0126557E1,3.1274109E1,9.268862E1,1.19968735E2,1.6454248E1,1.0004418E0,1.8884564E2,1.3300151E2,1.9828862E2,2.6841968E2,6.8159914E0,1.055284E1,1.7796522E1,5.513218E0,3.795395E1,2.5640179E1,1.8465948E1,1.0378268E1,2.3714556E1,8.888353E0,1.6047379E1,6.014625E1,9.665839E1,1.4430544E2,2.2768896E1,2.7866774E1,1.9644527E1,2.1462933E1,2.2426972E0,2.0625424E0,7.339741E1,1.3132983E0,2.5492663E0,1.1061204E1,1.7271251E2,1.15845406E2,4.0995834E1,1.1375712E2,3.0881203E1,1.0822052E1,4.1621155E1,7.1010447E0,5.747688E0,1.9983671E0,3.9115054E2,1.4911842E2,1.8503519E2,3.840916E1,7.3884415E1,9.522305E1,2.7144098E1,2.8737814E0,2.9341503E1,1.6101694E1,6.5512924E1,2.4971209E0,4.0709778E1,9.576626E0,1.1924738E1,4.9732256E0,2.942136E2,1.1404644E2,5.309375E1,1.8034351E1,4.6173763E1,4.9691124E0,3.5926704E1,9.484515E1,5.3601404E2,1.1378258E2,2.1664174E2,9.220527E0,1.9423113E0,1.6269523E0,2.2032788E0,1.977141E2,1.1574679E2,8.46653E1,1.5000797E2,6.978847E0,9.9055664E1,3.2727618E0,5.63771E0,1.4423099E1,1.560634E0,2.3852563E0,4.7043057E2,1.0209257E1],"tree_param":{"num_deleted":"0","num_feature":"21","num_nodes":"507","size_leaf_vector":"1"}},{"base_weights":[-2.475077E-1,-7.83938E-1,3.1483522E-1,-9.8801905E-1,-3.5208622E-1,-3.1881943E-1,7.4873537E-1,-1.0594755E0,-7.449786E-1,-5.535891E-1,-1.066937E-2,-6.7946523E-1,-1.08196534E-1,2.2412744E-1,1.018196E0,-1.1014318E0,-9.1073424E-1,-8.166529E-1,-2.8158408E-1,-7.773844E-1,-3.7835586E-1,-4.1887972E-1,2.608981E-1,-8.142979E-1,-2.5158414E-1,-4.3666485E-1,2.5983676E-1,-2.4760285E-2,5.636076E-1,6.595567E-1,1.4609984E0,-1.1655724E0,-1.053488E0,-1.0223266E0,-7.6664156E-1,-9.9016064E-1,-7.0583224E-1,-4.7539625E-1,-3.856451E-2,-9.969793E-1,-6.9722766E-1,-6.23917E-1,-2.3989533E-1,-4.660721E-1,5.724871E-1,1.0599696E-1,5.138002E-1,-8.717519E-1,-2.7016994E-1,-5.9990835E-1,4.7937978E-2,-7.077494E-1,-3.2454017E-1,2.7431674E-2,7.2583926E-1,-4.2208153E-1,1.0783129E-1,1.9703998E-1,7.521884E-1,2.8540514E-2,8.80038E-1,6.103E-1,1.537761E0,-9.4536316E-1,-5.841827E-2,-1.1175073E0,-9.785988E-1,-1.0410868E0,-8.223331E-1,-1.0085627E0,-6.872895E-1,-1.0782596E0,-8.57379E-1,-8.2815486E-1,-5.549741E-1,-5.104894E-1,1.228087E0,4.514665E-1,-3.2811254E-1,-5.635001E-1,-1.0280881E0,-7.2617644E-1,-5.744893E-2,-6.637117E-1,-1.6269943E-1,-5.300009E-1,-1.5609233E-1,-6.449031E-1,-2.6408017E-1,2.045535E-1,1.0989321E0,4.1592154E-1,-1.9588973E-2,4.2606178E-1,1.1852854E0,-1.0112926E0,-7.0085883E-1,-5.6139606E-1,7.415424E-2,-7.0096815E-1,-3.396853E-1,-2.4569334E-1,3.224195E-1,-8.2047254E-1,-5.131695E-1,-5.109045E-1,-1.1753526E-1,-2.765755E-1,2.622005E-1,5.4898083E-1,1.0753115E0,-8.534083E-1,-2.8193924E-1,-6.505968E-2,3.3602026E-1,9.020202E-1,1.4635766E-1,5.883758E-1,1.0783452E0,-3.0361804E-1,2.6502758E-1,6.2586266E-1,1.0703642E0,1.4314784E-2,9.0560186E-1,1.2476116E0,1.7509302E0,-1.008493E0,-1.6332935E-1,-6.256618E-1,-1.1187873E0,-5.4138627E-2,-9.315447E-1,-1.1200331E0,-9.996189E-1,-9.491428E-1,-4.1186938E-1,-1.0271175E0,1.9561644E-1,-5.597041E-1,-8.10577E-1,-1.1107378E0,-8.2597005E-1,-8.717391E-1,1.3521533E-1,-8.906912E-1,-7.032504E-1,-6.052243E-1,-1.2615404E-2,-7.9513055E-1,-4.0908423E-1,1.3486817E-2,7.71411E-2,2.4935319E-1,1.6130013E0,-4.3922967E-1,5.7539165E-1,-1.200081E-3,-7.543769E-1,-1.0400583E0,-3.026475E-1,-9.158437E-1,-6.5817446E-1,-2.5524345E-1,1.1027652E0,-8.6595416E-1,-5.8080876E-1,1.799235E-1,-5.720782E-1,-5.832138E-1,3.2480374E-1,1.1902648E-1,-2.2083087E-1,-8.2816964E-1,-5.1616085E-1,-5.8841574E-1,-1.304984E-1,-5.620613E-1,4.1012788E-1,1.8418354E0,2.615248E-1,3.0673465E-1,1.1392862E0,-1.8164884E-1,2.3429851E-1,2.5222686E-1,6.651425E-1,1.3706107E0,4.9642798E-1,-1.0628927E0,-9.1054505E-1,-8.439278E-1,-5.6477004E-1,-8.125586E-1,-4.5060694E-1,6.459401E-1,-1.8951258E-1,1.8463054E-1,-7.4024504E-1,-8.994574E-1,-2.3849127E-1,-6.402455E-1,-8.1320114E-2,2.4841867E-1,1.2168187E0,-9.1853416E-1,-7.1770024E-1,-8.287892E-1,-3.9431244E-1,-6.574826E-1,-1.5492529E-1,-1.850791E-1,1.9840719E-1,-3.2069308E-1,4.74048E-1,2.1912992E-2,5.505327E-1,3.2109886E-1,8.4793574E-1,5.3160685E-1,1.2448417E0,-8.9321434E-1,3.6242324E-1,-4.5660985E-1,-8.671234E-2,-1.757732E-1,1.19479746E-1,2.872963E-1,9.004055E-1,1.2505876E0,2.0553517E-1,3.7680727E-1,2.2232877E-2,2.8388252E-2,6.5442324E-1,8.018885E-1,1.2502812E0,-3.474081E-1,1.2421438E0,-1.5696095E-1,5.42474E-1,2.5006577E-1,6.907236E-1,6.999489E-1,1.162794E0,-4.9659187E-1,1.6483244E-1,5.8121777E-1,1.2467929E0,1.2923661E0,9.0175724E-1,1.6265545E0,2.027309E0,-3.1571206E-2,-5.3438723E-2,2.8399175E-2,-3.78174E-2,-5.0099898E-2,2.33108E-2,-5.7968944E-2,-5.4784216E-2,-4.7042258E-2,-2.2860548E-2,-5.713114E-2,-4.5012664E-2,-5.190298E-2,-4.5156486E-2,-5.2899133E-2,-1.6863031E-2,8.014139E-3,-2.9135749E-2,-2.6898026E-3,-5.1812142E-2,-1.8953873E-2,4.1661754E-2,-2.9805243E-2,9.637542E-4,-4.1241385E-2,3.51029E-2,-3.6635797E-2,-5.5906948E-2,-4.325172E-2,3.5644963E-3,-3.0153502E-2,-4.572914E-2,-2.2882327E-2,6.2578194E-2,-3.461575E-2,-4.6975993E-2,-2.1522198E-2,-4.0484622E-2,-3.1218288E-2,1.2329223E-2,-2.9105043E-2,1.1172711E-2,-4.469778E-2,3.8232863E-2,-2.7335754E-2,-1.0183445E-2,6.9792005E-3,5.1633354E-2,2.8588946E-4,1.0254573E-1,-4.142817E-2,-1.2438716E-2,9.2024714E-2,1.1240756E-2,-3.883425E-2,1.8127551E-2,-4.10684E-2,-1.5357593E-3,-5.4228634E-2,-4.7378894E-2,1.1899469E-2,-4.3688994E-2,-4.685546E-2,2.893884E-2,-4.5718115E-2,-3.016134E-2,-4.3840364E-2,1.1945835E-3,-1.6963737E-3,9.021919E-2,-2.2918848E-2,-4.583443E-2,-3.460486E-2,-1.8217735E-2,-6.9870264E-3,5.2697044E-2,-3.871085E-2,2.7635163E-2,-3.0115886E-2,3.8224574E-2,6.49605E-2,-1.5339947E-2,-1.4490274E-2,1.4013531E-2,-1.9671293E-2,-3.114756E-3,3.0664537E-2,-4.2265173E-2,-1.7535297E-2,-3.248864E-2,-3.7817236E-2,-1.2411601E-2,2.118089E-2,-9.6118E-3,-3.9798975E-2,-7.6502436E-3,2.894477E-2,-1.25656845E-2,3.3230294E-2,1.04903474E-1,5.9594806E-2,-1.4719251E-2,3.723884E-2,7.4037807E-3,-2.2959005E-2,6.90515E-2,-2.4733672E-2,-6.029424E-3,-7.421724E-3,1.635367E-2,1.4450058E-2,-3.6689274E-2,6.486381E-3,4.6005838E-2,4.8590913E-2,7.9293594E-2,5.1587433E-2,6.620712E-3,-5.3607803E-2,-3.4206785E-2,-4.701506E-2,-1.3863185E-2,-4.3101374E-2,-2.5192583E-2,-1.6907921E-2,-3.172941E-2,-4.5167834E-2,1.5381397E-3,-2.6814878E-2,4.3286085E-3,1.04044685E-2,5.3943027E-2,1.47950575E-2,-1.718527E-2,-3.5274938E-2,4.73056E-2,-4.1148555E-2,-2.0813113E-2,-5.2709788E-2,-1.7623534E-2,4.156541E-3,-2.229805E-2,-2.1690564E-2,-4.740381E-2,-1.8582447E-2,1.264024E-2,1.9362085E-2,-1.2873824E-3,1.03421144E-1,2.7623288E-3,-4.7270153E-2,-1.5212384E-2,-4.3764275E-2,-3.0452907E-2,-3.205873E-2,-5.001179E-2,-1.1111247E-2,-2.5432188E-2,-1.3545229E-2,-3.4510467E-2,-2.3484271E-2,8.688493E-4,-1.5555593E-2,-1.4741056E-3,2.8724698E-2,9.082688E-4,-1.7682007E-2,1.5881082E-2,1.1038201E-2,5.52854E-2,-3.7337027E-3,3.304587E-2,2.9171336E-2,-1.2673016E-2,2.8356705E-2,